{"learner":{"attributes":{"best_iteration":"568","best_score":"0.7885483337944509"},"feature_names":["LIMIT_BAL","SEX","EDUCATION","MARRIAGE","AGE","PAY_0","PAY_2","PAY_3","PAY_4","PAY_5","PAY_6","BILL_AMT1","BILL_AMT2","BILL_AMT3","BILL_AMT4","BILL_AMT5","BILL_AMT6","PAY_AMT1","PAY_AMT2","PAY_AMT3","PAY_AMT4","PAY_AMT5","PAY_AMT6"],"feature_types":["float","int","int","int","int","int","int","int","int","int","int","float","float","float","float","float","float","float","float","float","float","float","float"],"gradient_booster":{"model":{"gbtree_model_param":{"num_parallel_tree":"1","num_trees":"619"},"iteration_indptr":[0,1,2,3,4,5,6,7,8,9,10,11,12,13,14,15,16,17,18,19,20,21,22,23,24,25,26,27,28,29,30,31,32,33,34,35,36,37,38,39,40,41,42,43,44,45,46,47,48,49,50,51,52,53,54,55,56,57,58,59,60,61,62,63,64,65,66,67,68,69,70,71,72,73,74,75,76,77,78,79,80,81,82,83,84,85,86,87,88,89,90,91,92,93,94,95,96,97,98,99,100,101,102,103,104,105,106,107,108,109,110,111,112,113,114,115,116,117,118,119,120,121,122,123,124,125,126,127,128,129,130,131,132,133,134,135,136,137,138,139,140,141,142,143,144,145,146,147,148,149,150,151,152,153,154,155,156,157,158,159,160,161,162,163,164,165,166,167,168,169,170,171,172,173,174,175,176,177,178,179,180,181,182,183,184,185,186,187,188,189,190,191,192,193,194,195,196,197,198,199,200,201,202,203,204,205,206,207,208,209,210,211,212,213,214,215,216,217,218,219,220,221,222,223,224,225,226,227,228,229,230,231,232,233,234,235,236,237,238,239,240,241,242,243,244,245,246,247,248,249,250,251,252,253,254,255,256,257,258,259,260,261,262,263,264,265,266,267,268,269,270,271,272,273,274,275,276,277,278,279,280,281,282,283,284,285,286,287,288,289,290,291,292,293,294,295,296,297,298,299,300,301,302,303,304,305,306,307,308,309,310,311,312,313,314,315,316,317,318,319,320,321,322,323,324,325,326,327,328,329,330,331,332,333,334,335,336,337,338,339,340,341,342,343,344,345,346,347,348,349,350,351,352,353,354,355,356,357,358,359,360,361,362,363,364,365,366,367,368,369,370,371,372,373,374,375,376,377,378,379,380,381,382,383,384,385,386,387,388,389,390,391,392,393,394,395,396,397,398,399,400,401,402,403,404,405,406,407,408,409,410,411,412,413,414,415,416,417,418,419,420,421,422,423,424,425,426,427,428,429,430,431,432,433,434,435,436,437,438,439,440,441,442,443,444,445,446,447,448,449,450,451,452,453,454,455,456,457,458,459,460,461,462,463,464,465,466,467,468,469,470,471,472,473,474,475,476,477,478,479,480,481,482,483,484,485,486,487,488,489,490,491,492,493,494,495,496,497,498,499,500,501,502,503,504,505,506,507,508,509,510,511,512,513,514,515,516,517,518,519,520,521,522,523,524,525,526,527,528,529,530,531,532,533,534,535,536,537,538,539,540,541,542,543,544,545,546,547,548,549,550,551,552,553,554,555,556,557,558,559,560,561,562,563,564,565,566,567,568,569,570,571,572,573,574,575,576,577,578,579,580,581,582,583,584,585,586,587,588,589,590,591,592,593,594,595,596,597,598,599,600,601,602,603,604,605,606,607,608,609,610,611,612,613,614,615,616,617,618,619],"tree_info":[0,0,0,0,0,0,0,0,0,0,0,0,0,0,0,0,0,0,0,0,0,0,0,0,0,0,0,0,0,0,0,0,0,0,0,0,0,0,0,0,0,0,0,0,0,0,0,0,0,0,0,0,0,0,0,0,0,0,0,0,0,0,0,0,0,0,0,0,0,0,0,0,0,0,0,0,0,0,0,0,0,0,0,0,0,0,0,0,0,0,0,0,0,0,0,0,0,0,0,0,0,0,0,0,0,0,0,0,0,0,0,0,0,0,0,0,0,0,0,0,0,0,0,0,0,0,0,0,0,0,0,0,0,0,0,0,0,0,0,0,0,0,0,0,0,0,0,0,0,0,0,0,0,0,0,0,0,0,0,0,0,0,0,0,0,0,0,0,0,0,0,0,0,0,0,0,0,0,0,0,0,0,0,0,0,0,0,0,0,0,0,0,0,0,0,0,0,0,0,0,0,0,0,0,0,0,0,0,0,0,0,0,0,0,0,0,0,0,0,0,0,0,0,0,0,0,0,0,0,0,0,0,0,0,0,0,0,0,0,0,0,0,0,0,0,0,0,0,0,0,0,0,0,0,0,0,0,0,0,0,0,0,0,0,0,0,0,0,0,0,0,0,0,0,0,0,0,0,0,0,0,0,0,0,0,0,0,0,0,0,0,0,0,0,0,0,0,0,0,0,0,0,0,0,0,0,0,0,0,0,0,0,0,0,0,0,0,0,0,0,0,0,0,0,0,0,0,0,0,0,0,0,0,0,0,0,0,0,0,0,0,0,0,0,0,0,0,0,0,0,0,0,0,0,0,0,0,0,0,0,0,0,0,0,0,0,0,0,0,0,0,0,0,0,0,0,0,0,0,0,0,0,0,0,0,0,0,0,0,0,0,0,0,0,0,0,0,0,0,0,0,0,0,0,0,0,0,0,0,0,0,0,0,0,0,0,0,0,0,0,0,0,0,0,0,0,0,0,0,0,0,0,0,0,0,0,0,0,0,0,0,0,0,0,0,0,0,0,0,0,0,0,0,0,0,0,0,0,0,0,0,0,0,0,0,0,0,0,0,0,0,0,0,0,0,0,0,0,0,0,0,0,0,0,0,0,0,0,0,0,0,0,0,0,0,0,0,0,0,0,0,0,0,0,0,0,0,0,0,0,0,0,0,0,0,0,0,0,0,0,0,0,0,0,0,0,0,0,0,0,0,0,0,0,0,0,0,0,0,0,0,0,0,0,0,0,0,0,0,0,0,0,0,0,0,0,0,0,0,0,0,0,0,0,0,0,0,0,0,0,0,0,0,0,0,0,0,0,0,0,0,0,0,0,0,0,0,0,0,0,0,0,0,0,0,0,0,0,0,0,0,0,0,0,0,0,0,0,0,0,0,0,0,0,0,0,0,0,0],"trees":[{"base_weights":[-1.2428461E-1,-4.229514E-1,2.447731E0,-2.1133695E-2,3.277149E-2,1.880768E-2,9.766787E-2],"categories":[],"categories_nodes":[],"categories_segments":[],"categories_sizes":[],"default_left":[0,0,0,0,0,0,0],"id":0,"left_children":[1,3,5,-1,-1,-1,-1],"loss_changes":[2.198024E3,3.8558725E2,3.189502E1,0E0,0E0,0E0,0E0],"parents":[2147483647,0,0,1,1,2,2],"right_children":[2,4,6,-1,-1,-1,-1],"split_conditions":[2E0,2E0,5.81E2,-2.1133695E-2,3.277149E-2,1.880768E-2,9.766787E-2],"split_indices":[5,6,11,0,0,0,0],"split_type":[0,0,0,0,0,0,0],"sum_hessian":[2.859008E3,2.5623044E3,2.9670355E2,2.3423376E3,2.1996667E2,8.567711E0,2.8813586E2],"tree_param":{"num_deleted":"0","num_feature":"23","num_nodes":"7","size_leaf_vector":"1"}},{"base_weights":[-1.3088866E-1,-4.4158632E-1,1.5762217E0,-1.9583311E-2,2.3462001E-2,4.5170557E-2,8.704123E-2],"categories":[],"categories_nodes":[],"categories_segments":[],"categories_sizes":[],"default_left":[0,0,0,0,0,0,0],"id":1,"left_children":[1,3,5,-1,-1,-1,-1],"loss_changes":[1.5078629E3,1.5220126E2,1.1738098E2,0E0,0E0,0E0,0E0],"parents":[2147483647,0,0,1,1,2,2],"right_children":[2,4,6,-1,-1,-1,-1],"split_conditions":[2E0,2E0,2E0,-1.9583311E-2,2.3462001E-2,4.5170557E-2,8.704123E-2],"split_indices":[6,8,10,0,0,0,0],"split_type":[0,0,0,0,0,0,0],"sum_hessian":[2.8405925E3,2.4038315E3,4.3676105E2,2.2724487E3,1.3138278E2,2.6840027E2,1.6836078E2],"tree_param":{"num_deleted":"0","num_feature":"23","num_nodes":"7","size_leaf_vector":"1"}},{"base_weights":[-1.3029858E-1,-4.2309797E-1,2.136906E0,-2.0744653E-2,2.74988E-2,9.437887E-3,8.548122E-2],"categories":[],"categories_nodes":[],"categories_segments":[],"categories_sizes":[],"default_left":[0,0,0,0,0,0,0],"id":2,"left_children":[1,3,5,-1,-1,-1,-1],"loss_changes":[1.892904E3,3.1035382E2,3.341089E1,0E0,0E0,0E0,0E0],"parents":[2147483647,0,0,1,1,2,2],"right_children":[2,4,6,-1,-1,-1,-1],"split_conditions":[2E0,1E0,5.81E2,-2.0744653E-2,2.74988E-2,9.437887E-3,8.548122E-2],"split_indices":[5,6,11,0,0,0,0],"split_type":[0,0,0,0,0,0,0],"sum_hessian":[2.849101E3,2.5239568E3,3.251444E2,2.3024138E3,2.2154292E2,9.310497E0,3.158339E2],"tree_param":{"num_deleted":"0","num_feature":"23","num_nodes":"7","size_leaf_vector":"1"}},{"base_weights":[-1.183525E-1,-3.9952317E-1,1.9670651E0,-2.0041546E-2,2.7251154E-2,1.0239417E-2,7.866856E-2],"categories":[],"categories_nodes":[],"categories_segments":[],"categories_sizes":[],"default_left":[0,0,0,0,0,0,0],"id":3,"left_children":[1,3,5,-1,-1,-1,-1],"loss_changes":[1.6630073E3,3.1421774E2,2.8233276E1,0E0,0E0,0E0,0E0],"parents":[2147483647,0,0,1,1,2,2],"right_children":[2,4,6,-1,-1,-1,-1],"split_conditions":[2E0,2E0,5.81E2,-2.0041546E-2,2.7251154E-2,1.0239417E-2,7.866856E-2],"split_indices":[5,6,11,0,0,0,0],"split_type":[0,0,0,0,0,0,0],"sum_hessian":[2.833822E3,2.4978525E3,3.359696E2,2.2627637E3,2.3508885E2,9.766982E0,3.2620264E2],"tree_param":{"num_deleted":"0","num_feature":"23","num_nodes":"7","size_leaf_vector":"1"}},{"base_weights":[-1.3037881E-1,-4.0235487E-1,1.848277E0,-2.0968694E-2,1.5982868E-2,7.912477E-3,7.465262E-2],"categories":[],"categories_nodes":[],"categories_segments":[],"categories_sizes":[],"default_left":[0,0,0,0,0,0,0],"id":4,"left_children":[1,3,5,-1,-1,-1,-1],"loss_changes":[1.5114711E3,2.715231E2,3.641162E1,0E0,0E0,0E0,0E0],"parents":[2147483647,0,0,1,1,2,2],"right_children":[2,4,6,-1,-1,-1,-1],"split_conditions":[2E0,1E0,8.82E2,-2.0968694E-2,1.5982868E-2,7.912477E-3,7.465262E-2],"split_indices":[5,5,11,0,0,0,0],"split_type":[0,0,0,0,0,0,0],"sum_hessian":[2.8062766E3,2.4678545E3,3.3842218E2,2.1157231E3,3.5213138E2,1.3187946E1,3.2523422E2],"tree_param":{"num_deleted":"0","num_feature":"23","num_nodes":"7","size_leaf_vector":"1"}},{"base_weights":[-1.1786558E-1,-3.8061023E-1,1.7288874E0,-1.9097233E-2,2.4676774E-2,2.3307577E-2,6.978164E-2],"categories":[],"categories_nodes":[],"categories_segments":[],"categories_sizes":[],"default_left":[0,0,0,0,0,0,0],"id":5,"left_children":[1,3,5,-1,-1,-1,-1],"loss_changes":[1.3709355E3,2.73631E2,2.2970703E1,0E0,0E0,0E0,0E0],"parents":[2147483647,0,0,1,1,2,2],"right_children":[2,4,6,-1,-1,-1,-1],"split_conditions":[2E0,2E0,0E0,-1.9097233E-2,2.4676774E-2,2.3307577E-2,6.978164E-2],"split_indices":[5,6,7,0,0,0,0],"split_type":[0,0,0,0,0,0,0],"sum_hessian":[2.8230076E3,2.472088E3,3.5091956E2,2.2323467E3,2.3974135E2,1.8334694E1,3.3258487E2],"tree_param":{"num_deleted":"0","num_feature":"23","num_nodes":"7","size_leaf_vector":"1"}},{"base_weights":[-1.18019916E-1,-3.7655383E-1,1.62481E0,-1.9977363E-2,1.5677474E-2,5.6081405E-3,6.506447E-2],"categories":[],"categories_nodes":[],"categories_segments":[],"categories_sizes":[],"default_left":[0,0,0,0,0,0,0],"id":6,"left_children":[1,3,5,-1,-1,-1,-1],"loss_changes":[1.2665464E3,2.587465E2,2.3159363E1,0E0,0E0,0E0,0E0],"parents":[2147483647,0,0,1,1,2,2],"right_children":[2,4,6,-1,-1,-1,-1],"split_conditions":[2E0,1E0,5.81E2,-1.9977363E-2,1.5677474E-2,5.6081405E-3,6.506447E-2],"split_indices":[5,5,11,0,0,0,0],"split_type":[0,0,0,0,0,0,0],"sum_hessian":[2.808563E3,2.4464385E3,3.621243E2,2.0836382E3,3.6280038E2,1.0457873E1,3.516664E2],"tree_param":{"num_deleted":"0","num_feature":"23","num_nodes":"7","size_leaf_vector":"1"}},{"base_weights":[-1.1164363E-1,-3.5706753E-1,1.5294933E0,-1.822504E-2,2.5106817E-2,2.0299172E-2,6.1862618E-2],"categories":[],"categories_nodes":[],"categories_segments":[],"categories_sizes":[],"default_left":[0,0,0,0,0,0,0],"id":7,"left_children":[1,3,5,-1,-1,-1,-1],"loss_changes":[1.1234089E3,2.6796454E2,1.9943787E1,0E0,0E0,0E0,0E0],"parents":[2147483647,0,0,1,1,2,2],"right_children":[2,4,6,-1,-1,-1,-1],"split_conditions":[2E0,2E0,0E0,-1.822504E-2,2.5106817E-2,2.0299172E-2,6.1862618E-2],"split_indices":[5,7,7,0,0,0,0],"split_type":[0,0,0,0,0,0,0],"sum_hessian":[2.7868218E3,2.4249631E3,3.618588E2,2.1848372E3,2.401258E2,1.9803005E1,3.420558E2],"tree_param":{"num_deleted":"0","num_feature":"23","num_nodes":"7","size_leaf_vector":"1"}},{"base_weights":[-1.0481899E-1,-3.485307E-1,1.4654386E0,-1.7705228E-2,2.2387944E-2,1.8636523E-2,5.917798E-2],"categories":[],"categories_nodes":[],"categories_segments":[],"categories_sizes":[],"default_left":[0,0,0,0,0,0,0],"id":8,"left_children":[1,3,5,-1,-1,-1,-1],"loss_changes":[1.06349E3,2.3425903E2,1.842926E1,0E0,0E0,0E0,0E0],"parents":[2147483647,0,0,1,1,2,2],"right_children":[2,4,6,-1,-1,-1,-1],"split_conditions":[2E0,2E0,0E0,-1.7705228E-2,2.2387944E-2,1.8636523E-2,5.917798E-2],"split_indices":[5,7,7,0,0,0,0],"split_type":[0,0,0,0,0,0,0],"sum_hessian":[2.7766494E3,2.4042725E3,3.7237692E2,2.1581118E3,2.4616078E2,1.9117487E1,3.5325943E2],"tree_param":{"num_deleted":"0","num_feature":"23","num_nodes":"7","size_leaf_vector":"1"}},{"base_weights":[-9.058984E-2,-4.629688E-1,9.0681267E-1,-5.201517E-3,-2.4788428E-2,1.5339558E-2,5.4407343E-2],"categories":[],"categories_nodes":[],"categories_segments":[],"categories_sizes":[],"default_left":[0,0,0,0,0,0,0],"id":9,"left_children":[1,3,5,-1,-1,-1,-1],"loss_changes":[1.0252274E3,1.1426962E2,1.8759454E2,0E0,0E0,0E0,0E0],"parents":[2147483647,0,0,1,1,2,2],"right_children":[2,4,6,-1,-1,-1,-1],"split_conditions":[1E0,1.502E3,2E0,-5.201517E-3,-2.4788428E-2,1.5339558E-2,5.4407343E-2],"split_indices":[5,18,5,0,0,0,0],"split_type":[0,0,0,0,0,0,0],"sum_hessian":[2.7582227E3,2.0087822E3,7.494404E2,6.910916E2,1.3176906E3,3.6615753E2,3.8328293E2],"tree_param":{"num_deleted":"0","num_feature":"23","num_nodes":"7","size_leaf_vector":"1"}},{"base_weights":[-9.3697116E-2,-3.3655116E-1,9.733897E-1,5.5783405E-3,-1.7474238E-2,2.7468216E-2,5.38265E-2],"categories":[],"categories_nodes":[],"categories_segments":[],"categories_sizes":[],"default_left":[0,0,0,0,0,0,0],"id":10,"left_children":[1,3,5,-1,-1,-1,-1],"loss_changes":[7.123773E2,1.19799484E2,5.481195E1,0E0,0E0,0E0,0E0],"parents":[2147483647,0,0,1,1,2,2],"right_children":[2,4,6,-1,-1,-1,-1],"split_conditions":[2E0,1.8E1,2E0,5.5783405E-3,-1.7474238E-2,2.7468216E-2,5.38265E-2],"split_indices":[6,19,10,0,0,0,0],"split_type":[0,0,0,0,0,0,0],"sum_hessian":[2.7466743E3,2.2380173E3,5.086569E2,4.2213632E2,1.815881E3,3.077901E2,2.0086678E2],"tree_param":{"num_deleted":"0","num_feature":"23","num_nodes":"7","size_leaf_vector":"1"}},{"base_weights":[-8.037952E-2,-4.2452762E-1,8.3108693E-1,-3.295205E-3,-2.350023E-2,1.4128199E-2,4.9908955E-2],"categories":[],"categories_nodes":[],"categories_segments":[],"categories_sizes":[],"default_left":[0,0,0,0,0,0,0],"id":11,"left_children":[1,3,5,-1,-1,-1,-1],"loss_changes":[8.590635E2,1.202966E2,1.5742279E2,0E0,0E0,0E0,0E0],"parents":[2147483647,0,0,1,1,2,2],"right_children":[2,4,6,-1,-1,-1,-1],"split_conditions":[1E0,1.502E3,2E0,-3.295205E-3,-2.350023E-2,1.4128199E-2,4.9908955E-2],"split_indices":[5,18,5,0,0,0,0],"split_type":[0,0,0,0,0,0,0],"sum_hessian":[2.736542E3,1.9868782E3,7.4966376E2,6.8331683E2,1.3035614E3,3.6746472E2,3.8219907E2],"tree_param":{"num_deleted":"0","num_feature":"23","num_nodes":"7","size_leaf_vector":"1"}},{"base_weights":[-9.649478E-2,-3.286541E-1,8.956825E-1,-1.4737549E-2,2.5211288E-2,2.5987003E-2,4.8121735E-2],"categories":[],"categories_nodes":[],"categories_segments":[],"categories_sizes":[],"default_left":[0,0,0,0,0,0,0],"id":12,"left_children":[1,3,5,-1,-1,-1,-1],"loss_changes":[6.284154E2,1.0636336E2,3.9306915E1,0E0,0E0,0E0,0E0],"parents":[2147483647,0,0,1,1,2,2],"right_children":[2,4,6,-1,-1,-1,-1],"split_conditions":[2E0,2E0,2E0,-1.4737549E-2,2.5211288E-2,2.5987003E-2,4.8121735E-2],"split_indices":[6,9,10,0,0,0,0],"split_type":[0,0,0,0,0,0,0],"sum_hessian":[2.7258918E3,2.2095488E3,5.16343E2,2.1039355E3,1.0561329E2,3.094594E2,2.0688362E2],"tree_param":{"num_deleted":"0","num_feature":"23","num_nodes":"7","size_leaf_vector":"1"}},{"base_weights":[-8.802401E-2,-4.2099375E-1,7.559004E-1,-4.7779977E-3,-2.3419674E-2,1.2971213E-2,4.489712E-2],"categories":[],"categories_nodes":[],"categories_segments":[],"categories_sizes":[],"default_left":[0,0,0,0,0,0,0],"id":13,"left_children":[1,3,5,-1,-1,-1,-1],"loss_changes":[7.657993E2,1.04625305E2,1.2864508E2,0E0,0E0,0E0,0E0],"parents":[2147483647,0,0,1,1,2,2],"right_children":[2,4,6,-1,-1,-1,-1],"split_conditions":[1E0,1.63E3,2E0,-4.7779977E-3,-2.3419674E-2,1.2971213E-2,4.489712E-2],"split_indices":[5,18,5,0,0,0,0],"split_type":[0,0,0,0,0,0,0],"sum_hessian":[2.7231196E3,1.9530474E3,7.700722E2,7.3410254E2,1.2189448E3,3.7275668E2,3.9731555E2],"tree_param":{"num_deleted":"0","num_feature":"23","num_nodes":"7","size_leaf_vector":"1"}},{"base_weights":[-7.329954E-2,-3.9849624E-1,7.373069E-1,-3.4963763E-3,-2.2800332E-2,1.190274E-2,4.500643E-2],"categories":[],"categories_nodes":[],"categories_segments":[],"categories_sizes":[],"default_left":[0,0,0,0,0,0,0],"id":14,"left_children":[1,3,5,-1,-1,-1,-1],"loss_changes":[7.1413464E2,1.1108246E2,1.3931848E2,0E0,0E0,0E0,0E0],"parents":[2147483647,0,0,1,1,2,2],"right_children":[2,4,6,-1,-1,-1,-1],"split_conditions":[1E0,1.63E3,2E0,-3.4963763E-3,-2.2800332E-2,1.190274E-2,4.500643E-2],"split_indices":[5,18,5,0,0,0,0],"split_type":[0,0,0,0,0,0,0],"sum_hessian":[2.7069785E3,1.9322947E3,7.7468384E2,7.271691E2,1.2051255E3,3.8116293E2,3.9352094E2],"tree_param":{"num_deleted":"0","num_feature":"23","num_nodes":"7","size_leaf_vector":"1"}},{"base_weights":[-9.080718E-2,-4.0076062E-1,6.7615086E-1,-1.7722417E-2,1.8461881E-2,1.0162352E-2,4.1855976E-2],"categories":[],"categories_nodes":[],"categories_segments":[],"categories_sizes":[],"default_left":[0,0,0,0,0,0,0],"id":15,"left_children":[1,3,5,-1,-1,-1,-1],"loss_changes":[6.410231E2,9.028732E1,1.2779886E2,0E0,0E0,0E0,0E0],"parents":[2147483647,0,0,1,1,2,2],"right_children":[2,4,6,-1,-1,-1,-1],"split_conditions":[1E0,1E0,2E0,-1.7722417E-2,1.8461881E-2,1.0162352E-2,4.1855976E-2],"split_indices":[5,8,5,0,0,0,0],"split_type":[0,0,0,0,0,0,0],"sum_hessian":[2.6943923E3,1.9192404E3,7.751519E2,1.8086917E3,1.1054867E2,3.7956284E2,3.9558905E2],"tree_param":{"num_deleted":"0","num_feature":"23","num_nodes":"7","size_leaf_vector":"1"}},{"base_weights":[-7.187372E-2,-3.8265702E-1,6.8075323E-1,-1.709212E-2,2.1854132E-2,1.2021524E-2,4.026992E-2],"categories":[],"categories_nodes":[],"categories_segments":[],"categories_sizes":[],"default_left":[0,0,0,0,0,0,0],"id":16,"left_children":[1,3,5,-1,-1,-1,-1],"loss_changes":[6.287693E2,9.999573E1,1.0264282E2,0E0,0E0,0E0,0E0],"parents":[2147483647,0,0,1,1,2,2],"right_children":[2,4,6,-1,-1,-1,-1],"split_conditions":[1E0,2E0,2E0,-1.709212E-2,2.1854132E-2,1.2021524E-2,4.026992E-2],"split_indices":[5,10,5,0,0,0,0],"split_type":[0,0,0,0,0,0,0],"sum_hessian":[2.6860386E3,1.9013876E3,7.846511E2,1.7960253E3,1.0536226E2,3.8202457E2,4.0262656E2],"tree_param":{"num_deleted":"0","num_feature":"23","num_nodes":"7","size_leaf_vector":"1"}},{"base_weights":[-7.363133E-2,-3.805917E-1,6.690767E-1,-7.753514E-4,-2.0198718E-2,1.1955965E-2,3.9855115E-2],"categories":[],"categories_nodes":[],"categories_segments":[],"categories_sizes":[],"default_left":[0,0,0,0,0,0,0],"id":17,"left_children":[1,3,5,-1,-1,-1,-1],"loss_changes":[6.038417E2,9.281351E1,9.8766846E1,0E0,0E0,0E0,0E0],"parents":[2147483647,0,0,1,1,2,2],"right_children":[2,4,6,-1,-1,-1,-1],"split_conditions":[1E0,8E4,2E0,-7.753514E-4,-2.0198718E-2,1.1955965E-2,3.9855115E-2],"split_indices":[5,0,5,0,0,0,0],"split_type":[0,0,0,0,0,0,0],"sum_hessian":[2.6465215E3,1.8729294E3,7.7359204E2,5.16742E2,1.3561875E3,3.8249243E2,3.910996E2],"tree_param":{"num_deleted":"0","num_feature":"23","num_nodes":"7","size_leaf_vector":"1"}},{"base_weights":[-7.033506E-2,-3.566791E-1,6.0454774E-1,-1.614155E-2,2.267601E-2,9.82395E-3,3.663365E-2],"categories":[],"categories_nodes":[],"categories_segments":[],"categories_sizes":[],"default_left":[0,0,0,0,0,0,0],"id":18,"left_children":[1,3,5,-1,-1,-1,-1],"loss_changes":[5.113593E2,9.99371E1,9.283008E1,0E0,0E0,0E0,0E0],"parents":[2147483647,0,0,1,1,2,2],"right_children":[2,4,6,-1,-1,-1,-1],"split_conditions":[1E0,1E0,2E0,-1.614155E-2,2.267601E-2,9.82395E-3,3.663365E-2],"split_indices":[5,8,5,0,0,0,0],"split_type":[0,0,0,0,0,0,0],"sum_hessian":[2.6440051E3,1.8567019E3,7.8730316E2,1.7505135E3,1.0618845E2,3.8426907E2,4.030341E2],"tree_param":{"num_deleted":"0","num_feature":"23","num_nodes":"7","size_leaf_vector":"1"}},{"base_weights":[-7.701102E-2,-3.5449162E-1,5.7442135E-1,-2.0663615E-3,-2.0264681E-2,8.831911E-3,3.5726182E-2],"categories":[],"categories_nodes":[],"categories_segments":[],"categories_sizes":[],"default_left":[0,0,0,0,0,0,0],"id":19,"left_children":[1,3,5,-1,-1,-1,-1],"loss_changes":[4.7563074E2,9.1828705E1,9.3234985E1,0E0,0E0,0E0,0E0],"parents":[2147483647,0,0,1,1,2,2],"right_children":[2,4,6,-1,-1,-1,-1],"split_conditions":[1E0,1.502E3,2E0,-2.0663615E-3,-2.0264681E-2,8.831911E-3,3.5726182E-2],"split_indices":[5,18,5,0,0,0,0],"split_type":[0,0,0,0,0,0,0],"sum_hessian":[2.6291587E3,1.8441083E3,7.8505054E2,6.5300836E2,1.1910999E3,3.897474E2,3.9530316E2],"tree_param":{"num_deleted":"0","num_feature":"23","num_nodes":"7","size_leaf_vector":"1"}},{"base_weights":[-6.806028E-2,-3.368089E-1,5.629253E-1,-1.5436896E-2,1.8225964E-2,9.577071E-3,3.406102E-2],"categories":[],"categories_nodes":[],"categories_segments":[],"categories_sizes":[],"default_left":[0,0,0,0,0,0,0],"id":20,"left_children":[1,3,5,-1,-1,-1,-1],"loss_changes":[4.4490833E2,8.7486725E1,7.699669E1,0E0,0E0,0E0,0E0],"parents":[2147483647,0,0,1,1,2,2],"right_children":[2,4,6,-1,-1,-1,-1],"split_conditions":[1E0,1E0,2E0,-1.5436896E-2,1.8225964E-2,9.577071E-3,3.406102E-2],"split_indices":[5,7,5,0,0,0,0],"split_type":[0,0,0,0,0,0,0],"sum_hessian":[2.621526E3,1.8388088E3,7.827171E2,1.7135724E3,1.2523643E2,3.8792712E2,3.9478998E2],"tree_param":{"num_deleted":"0","num_feature":"23","num_nodes":"7","size_leaf_vector":"1"}},{"base_weights":[-7.080868E-2,-3.3788222E-1,5.445047E-1,-6.453147E-4,-1.959939E-2,1.0040646E-2,3.200685E-2],"categories":[],"categories_nodes":[],"categories_segments":[],"categories_sizes":[],"default_left":[0,0,0,0,0,0,0],"id":21,"left_children":[1,3,5,-1,-1,-1,-1],"loss_changes":[4.2715378E2,9.589169E1,6.216391E1,0E0,0E0,0E0,0E0],"parents":[2147483647,0,0,1,1,2,2],"right_children":[2,4,6,-1,-1,-1,-1],"split_conditions":[1E0,9E2,2E0,-6.453147E-4,-1.959939E-2,1.0040646E-2,3.200685E-2],"split_indices":[5,20,5,0,0,0,0],"split_type":[0,0,0,0,0,0,0],"sum_hessian":[2.5971843E3,1.8114045E3,7.857797E2,6.141095E2,1.197295E3,3.862559E2,3.9952386E2],"tree_param":{"num_deleted":"0","num_feature":"23","num_nodes":"7","size_leaf_vector":"1"}},{"base_weights":[-5.6185275E-2,-3.1680077E-1,5.3162605E-1,-1.471732E-2,2.4243185E-2,8.74573E-3,3.24174E-2],"categories":[],"categories_nodes":[],"categories_segments":[],"categories_sizes":[],"default_left":[0,0,0,0,0,0,0],"id":22,"left_children":[1,3,5,-1,-1,-1,-1],"loss_changes":[3.9806793E2,1.02549576E2,7.331935E1,0E0,0E0,0E0,0E0],"parents":[2147483647,0,0,1,1,2,2],"right_children":[2,4,6,-1,-1,-1,-1],"split_conditions":[1E0,1E0,2E0,-1.471732E-2,2.4243185E-2,8.74573E-3,3.24174E-2],"split_indices":[5,8,5,0,0,0,0],"split_type":[0,0,0,0,0,0,0],"sum_hessian":[2.5963782E3,1.7991552E3,7.97223E2,1.6906381E3,1.0851717E2,3.9436047E2,4.0286255E2],"tree_param":{"num_deleted":"0","num_feature":"23","num_nodes":"7","size_leaf_vector":"1"}},{"base_weights":[-5.7447422E-2,-3.1252545E-1,5.1192087E-1,-2.448724E-3,-2.0935403E-2,9.024392E-3,3.030649E-2],"categories":[],"categories_nodes":[],"categories_segments":[],"categories_sizes":[],"default_left":[0,0,0,0,0,0,0],"id":23,"left_children":[1,3,5,-1,-1,-1,-1],"loss_changes":[3.7564706E2,1.00008865E2,5.935083E1,0E0,0E0,0E0,0E0],"parents":[2147483647,0,0,1,1,2,2],"right_children":[2,4,6,-1,-1,-1,-1],"split_conditions":[1E0,1.5E5,2E0,-2.448724E-3,-2.0935403E-2,9.024392E-3,3.030649E-2],"split_indices":[5,0,5,0,0,0,0],"split_type":[0,0,0,0,0,0,0],"sum_hessian":[2.5844055E3,1.7851198E3,7.992857E2,8.452291E2,9.398906E2,3.8930557E2,4.0998013E2],"tree_param":{"num_deleted":"0","num_feature":"23","num_nodes":"7","size_leaf_vector":"1"}},{"base_weights":[-7.868576E-2,-2.3438065E-1,6.1438596E-1,-1.4544608E-3,-2.0429123E-2,1.4863867E-2,3.362859E-2],"categories":[],"categories_nodes":[],"categories_segments":[],"categories_sizes":[],"default_left":[0,0,0,0,0,0,0],"id":24,"left_children":[1,3,5,-1,-1,-1,-1],"loss_changes":[2.778813E2,1.1991431E2,2.6987259E1,0E0,0E0,0E0,0E0],"parents":[2147483647,0,0,1,1,2,2],"right_children":[2,4,6,-1,-1,-1,-1],"split_conditions":[2E0,3E3,2E0,-1.4544608E-3,-2.0429123E-2,1.4863867E-2,3.362859E-2],"split_indices":[7,17,9,0,0,0,0],"split_type":[0,0,0,0,0,0,0],"sum_hessian":[2.5728403E3,2.1014277E3,4.714128E2,1.2508387E3,8.505889E2,2.44178E2,2.272348E2],"tree_param":{"num_deleted":"0","num_feature":"23","num_nodes":"7","size_leaf_vector":"1"}},{"base_weights":[-6.0016986E-2,-2.9608944E-1,4.6503875E-1,3.699041E-3,-1.6985431E-2,7.861154E-3,2.7988683E-2],"categories":[],"categories_nodes":[],"categories_segments":[],"categories_sizes":[],"default_left":[0,0,0,0,0,0,0],"id":25,"left_children":[1,3,5,-1,-1,-1,-1],"loss_changes":[3.1703363E2,9.621144E1,5.2659256E1,0E0,0E0,0E0,0E0],"parents":[2147483647,0,0,1,1,2,2],"right_children":[2,4,6,-1,-1,-1,-1],"split_conditions":[1E0,7E4,2E0,3.699041E-3,-1.6985431E-2,7.861154E-3,2.7988683E-2],"split_indices":[5,0,5,0,0,0,0],"split_type":[0,0,0,0,0,0,0],"sum_hessian":[2.5556184E3,1.7632655E3,7.9235297E2,4.6364612E2,1.2996194E3,3.887268E2,4.0362613E2],"tree_param":{"num_deleted":"0","num_feature":"23","num_nodes":"7","size_leaf_vector":"1"}},{"base_weights":[-7.122037E-2,-3.0204067E-1,4.4635406E-1,2.2742792E-3,-1.7355282E-2,7.6574185E-3,2.7034115E-2],"categories":[],"categories_nodes":[],"categories_segments":[],"categories_sizes":[],"default_left":[0,0,0,0,0,0,0],"id":26,"left_children":[1,3,5,-1,-1,-1,-1],"loss_changes":[3.02771E2,9.031384E1,4.81024E1,0E0,0E0,0E0,0E0],"parents":[2147483647,0,0,1,1,2,2],"right_children":[2,4,6,-1,-1,-1,-1],"split_conditions":[1E0,8E4,2E0,2.2742792E-3,-1.7355282E-2,7.6574185E-3,2.7034115E-2],"split_indices":[5,0,5,0,0,0,0],"split_type":[0,0,0,0,0,0,0],"sum_hessian":[2.5322266E3,1.751524E3,7.8070264E2,4.9768134E2,1.2538427E3,3.8874356E2,3.919591E2],"tree_param":{"num_deleted":"0","num_feature":"23","num_nodes":"7","size_leaf_vector":"1"}},{"base_weights":[-4.631765E-2,-2.662878E-1,4.3291745E-1,-1.2193886E-3,-1.774583E-2,6.764029E-3,2.6925394E-2],"categories":[],"categories_nodes":[],"categories_segments":[],"categories_sizes":[],"default_left":[0,0,0,0,0,0,0],"id":27,"left_children":[1,3,5,-1,-1,-1,-1],"loss_changes":[2.659188E2,7.666967E1,5.2902756E1,0E0,0E0,0E0,0E0],"parents":[2147483647,0,0,1,1,2,2],"right_children":[2,4,6,-1,-1,-1,-1],"split_conditions":[1E0,1.233E3,2E0,-1.2193886E-3,-1.774583E-2,6.764029E-3,2.6925394E-2],"split_indices":[5,21,5,0,0,0,0],"split_type":[0,0,0,0,0,0,0],"sum_hessian":[2.5204382E3,1.7278123E3,7.92626E2,7.7005835E2,9.577539E2,3.956106E2,3.9701538E2],"tree_param":{"num_deleted":"0","num_feature":"23","num_nodes":"7","size_leaf_vector":"1"}},{"base_weights":[-5.84806E-2,-2.6000735E-1,3.8371792E-1,-1.9309155E-3,-1.7818455E-2,9.031525E-3,2.883343E-2],"categories":[],"categories_nodes":[],"categories_segments":[],"categories_sizes":[],"default_left":[0,0,0,0,0,0,0],"id":28,"left_children":[1,3,5,-1,-1,-1,-1],"loss_changes":[2.2361958E2,7.140583E1,4.2332687E1,0E0,0E0,0E0,0E0],"parents":[2147483647,0,0,1,1,2,2],"right_children":[2,4,6,-1,-1,-1,-1],"split_conditions":[1E0,1.5E5,2E0,-1.9309155E-3,-1.7818455E-2,9.031525E-3,2.883343E-2],"split_indices":[5,0,9,0,0,0,0],"split_type":[0,0,0,0,0,0,0],"sum_hessian":[2.5072224E3,1.7225862E3,7.846363E2,8.331003E2,8.8948584E2,5.5068304E2,2.3395323E2],"tree_param":{"num_deleted":"0","num_feature":"23","num_nodes":"7","size_leaf_vector":"1"}},{"base_weights":[-5.318534E-2,-2.5414777E-1,3.8388392E-1,1.9670485E-3,-1.6751716E-2,8.995542E-3,2.9476466E-2],"categories":[],"categories_nodes":[],"categories_segments":[],"categories_sizes":[],"default_left":[0,0,0,0,0,0,0],"id":29,"left_children":[1,3,5,-1,-1,-1,-1],"loss_changes":[2.2099649E2,9.208463E1,4.4991844E1,0E0,0E0,0E0,0E0],"parents":[2147483647,0,0,1,1,2,2],"right_children":[2,4,6,-1,-1,-1,-1],"split_conditions":[1E0,1.502E3,2E0,1.9670485E-3,-1.6751716E-2,8.995542E-3,2.9476466E-2],"split_indices":[5,18,10,0,0,0,0],"split_type":[0,0,0,0,0,0,0],"sum_hessian":[2.5139448E3,1.7224081E3,7.915368E2,6.29639E2,1.0927692E3,5.617294E2,2.2980743E2],"tree_param":{"num_deleted":"0","num_feature":"23","num_nodes":"7","size_leaf_vector":"1"}},{"base_weights":[-3.1051556E-2,-1.7710587E-1,5.9202945E-1,2.5047825E-3,-1.4606861E-2,7.28599E-3,2.5472863E-2],"categories":[],"categories_nodes":[],"categories_segments":[],"categories_sizes":[],"default_left":[0,0,0,0,0,0,0],"id":30,"left_children":[1,3,5,-1,-1,-1,-1],"loss_changes":[2.2790651E2,9.668006E1,1.1656448E1,0E0,0E0,0E0,0E0],"parents":[2147483647,0,0,1,1,2,2],"right_children":[2,4,6,-1,-1,-1,-1],"split_conditions":[2E0,1.808E3,0E0,2.5047825E-3,-1.4606861E-2,7.28599E-3,2.5472863E-2],"split_indices":[7,17,10,0,0,0,0],"split_type":[0,0,0,0,0,0,0],"sum_hessian":[2.502214E3,2.0276381E3,4.7457602E2,9.126806E2,1.1149574E3,6.273334E1,4.1184268E2],"tree_param":{"num_deleted":"0","num_feature":"23","num_nodes":"7","size_leaf_vector":"1"}},{"base_weights":[-4.672696E-2,-2.5072372E-1,3.9132857E-1,-6.223057E-4,-1.7434599E-2,-8.68332E-4,2.0353949E-2],"categories":[],"categories_nodes":[],"categories_segments":[],"categories_sizes":[],"default_left":[0,0,0,0,0,0,0],"id":31,"left_children":[1,3,5,-1,-1,-1,-1],"loss_changes":[2.218445E2,7.805044E1,4.2608818E1,0E0,0E0,0E0,0E0],"parents":[2147483647,0,0,1,1,2,2],"right_children":[2,4,6,-1,-1,-1,-1],"split_conditions":[1E0,1.36E3,0E0,-6.223057E-4,-1.7434599E-2,-8.68332E-4,2.0353949E-2],"split_indices":[5,20,6,0,0,0,0],"split_type":[0,0,0,0,0,0,0],"sum_hessian":[2.480442E3,1.6926324E3,7.878093E2,7.713228E2,9.213097E2,1.8922827E2,5.9858105E2],"tree_param":{"num_deleted":"0","num_feature":"23","num_nodes":"7","size_leaf_vector":"1"}},{"base_weights":[-4.020636E-2,-1.6436511E-1,6.1503357E-1,-9.267101E-3,2.0418659E-2,-3.0069733E-3,2.566927E-2],"categories":[],"categories_nodes":[],"categories_segments":[],"categories_sizes":[],"default_left":[0,0,0,0,0,0,0],"id":32,"left_children":[1,3,5,-1,-1,-1,-1],"loss_changes":[2.0294273E2,1.05793106E2,1.192012E1,0E0,0E0,0E0,0E0],"parents":[2147483647,0,0,1,1,2,2],"right_children":[2,4,6,-1,-1,-1,-1],"split_conditions":[2E0,1E0,0E0,-9.267101E-3,2.0418659E-2,-3.0069733E-3,2.566927E-2],"split_indices":[5,8,7,0,0,0,0],"split_type":[0,0,0,0,0,0,0],"sum_hessian":[2.4923281E3,2.0959282E3,3.9639978E2,1.8948146E3,2.011138E2,2.3217854E1,3.7318192E2],"tree_param":{"num_deleted":"0","num_feature":"23","num_nodes":"7","size_leaf_vector":"1"}},{"base_weights":[-4.7884192E-2,-1.5346116E-1,6.442112E-1,6.79078E-3,-1.140191E-2,2.6231743E-2,-1.603985E-2],"categories":[],"categories_nodes":[],"categories_segments":[],"categories_sizes":[],"default_left":[0,0,0,0,0,0,0],"id":33,"left_children":[1,3,5,-1,-1,-1,-1],"loss_changes":[1.8042862E2,9.751575E1,1.007309E1,0E0,0E0,0E0,0E0],"parents":[2147483647,0,0,1,1,2,2],"right_children":[2,4,6,-1,-1,-1,-1],"split_conditions":[2E0,6E2,1.3E4,6.79078E-3,-1.140191E-2,2.6231743E-2,-1.603985E-2],"split_indices":[10,19,18,0,0,0,0],"split_type":[0,0,0,0,0,0,0],"sum_hessian":[2.4669268E3,2.1410886E3,3.2583807E2,6.374397E2,1.503649E3,3.1765442E2,8.183654E0],"tree_param":{"num_deleted":"0","num_feature":"23","num_nodes":"7","size_leaf_vector":"1"}},{"base_weights":[-4.440967E-2,-1.8424405E-1,5.382313E-1,-9.790091E-3,1.9189099E-2,1.613639E-2,2.8338555E-2],"categories":[],"categories_nodes":[],"categories_segments":[],"categories_sizes":[],"default_left":[0,0,0,0,0,0,0],"id":34,"left_children":[1,3,5,-1,-1,-1,-1],"loss_changes":[2.0121962E2,9.006815E1,1.0910034E1,0E0,0E0,0E0,0E0],"parents":[2147483647,0,0,1,1,2,2],"right_children":[2,4,6,-1,-1,-1,-1],"split_conditions":[1E0,2E0,3.7E1,-9.790091E-3,1.9189099E-2,1.613639E-2,2.8338555E-2],"split_indices":[7,5,4,0,0,0,0],"split_type":[0,0,0,0,0,0,0],"sum_hessian":[2.4675464E3,1.9905066E3,4.7703964E2,1.8121774E3,1.7832921E2,2.8917395E2,1.8786569E2],"tree_param":{"num_deleted":"0","num_feature":"23","num_nodes":"7","size_leaf_vector":"1"}},{"base_weights":[-3.4993708E-2,-1.501668E-1,5.708371E-1,-1.0415996E-2,7.973041E-3,2.3425046E-2,-2.327527E-2],"categories":[],"categories_nodes":[],"categories_segments":[],"categories_sizes":[],"default_left":[0,0,0,0,0,0,0],"id":35,"left_children":[1,3,5,-1,-1,-1,-1],"loss_changes":[1.7174677E2,8.578688E1,1.4042435E1,0E0,0E0,0E0,0E0],"parents":[2147483647,0,0,1,1,2,2],"right_children":[2,4,6,-1,-1,-1,-1],"split_conditions":[1E0,1E0,1.5004E4,-1.0415996E-2,7.973041E-3,2.3425046E-2,-2.327527E-2],"split_indices":[8,5,18,0,0,0,0],"split_type":[0,0,0,0,0,0,0],"sum_hessian":[2.459194E3,2.0669946E3,3.9219943E2,1.5546769E3,5.123177E2,3.8291083E2,9.288584E0],"tree_param":{"num_deleted":"0","num_feature":"23","num_nodes":"7","size_leaf_vector":"1"}},{"base_weights":[-4.284681E-2,-1.381739E-1,5.796261E-1,5.4538427E-3,-1.0759814E-2,1.7249329E-2,2.9163687E-2],"categories":[],"categories_nodes":[],"categories_segments":[],"categories_sizes":[],"default_left":[0,0,0,0,0,0,0],"id":36,"left_children":[1,3,5,-1,-1,-1,-1],"loss_changes":[1.4574525E2,8.157724E1,7.2027435E0,0E0,0E0,0E0,0E0],"parents":[2147483647,0,0,1,1,2,2],"right_children":[2,4,6,-1,-1,-1,-1],"split_conditions":[2E0,8E2,3.5E1,5.4538427E-3,-1.0759814E-2,1.7249329E-2,2.9163687E-2],"split_indices":[9,19,4,0,0,0,0],"split_type":[0,0,0,0,0,0,0],"sum_hessian":[2.4538162E3,2.128613E3,3.2520316E2,7.051318E2,1.4234812E3,1.8100659E2,1.4419658E2],"tree_param":{"num_deleted":"0","num_feature":"23","num_nodes":"7","size_leaf_vector":"1"}},{"base_weights":[-4.7283296E-2,-2.2635244E-1,3.2433975E-1,-1.1059524E-2,1.8034404E-2,5.493153E-3,2.0011734E-2],"categories":[],"categories_nodes":[],"categories_segments":[],"categories_sizes":[],"default_left":[0,0,0,0,0,0,0],"id":37,"left_children":[1,3,5,-1,-1,-1,-1],"loss_changes":[1.6053912E2,6.429232E1,2.7102722E1,0E0,0E0,0E0,0E0],"parents":[2147483647,0,0,1,1,2,2],"right_children":[2,4,6,-1,-1,-1,-1],"split_conditions":[1E0,1E0,2E0,-1.1059524E-2,1.8034404E-2,5.493153E-3,2.0011734E-2],"split_indices":[5,7,5,0,0,0,0],"split_type":[0,0,0,0,0,0,0],"sum_hessian":[2.4103423E3,1.6268325E3,7.8350964E2,1.5025823E3,1.24250244E2,3.9820923E2,3.8530045E2],"tree_param":{"num_deleted":"0","num_feature":"23","num_nodes":"7","size_leaf_vector":"1"}},{"base_weights":[-2.5003709E-2,-1.4540118E-1,4.7460526E-1,8.064832E-4,-1.601759E-2,1.9773718E-2,-4.6590986E-3],"categories":[],"categories_nodes":[],"categories_segments":[],"categories_sizes":[],"default_left":[0,0,0,0,0,0,0],"id":38,"left_children":[1,3,5,-1,-1,-1,-1],"loss_changes":[1.4650127E2,8.647702E1,9.167763E0,0E0,0E0,0E0,0E0],"parents":[2147483647,0,0,1,1,2,2],"right_children":[2,4,6,-1,-1,-1,-1],"split_conditions":[1E0,3E3,3.1E5,8.064832E-4,-1.601759E-2,1.9773718E-2,-4.6590986E-3],"split_indices":[7,17,0,0,0,0,0],"split_type":[0,0,0,0,0,0,0],"sum_hessian":[2.4333848E3,1.9614232E3,4.719615E2,1.2068585E3,7.545647E2,4.4768192E2,2.427955E1],"tree_param":{"num_deleted":"0","num_feature":"23","num_nodes":"7","size_leaf_vector":"1"}},{"base_weights":[-3.1617567E-2,-1.1835813E-1,5.234028E-1,3.0706532E-3,-1.2639997E-2,2.1439899E-2,-1.50886355E-2],"categories":[],"categories_nodes":[],"categories_segments":[],"categories_sizes":[],"default_left":[0,0,0,0,0,0,0],"id":39,"left_children":[1,3,5,-1,-1,-1,-1],"loss_changes":[1.1730357E2,8.546393E1,8.108719E0,0E0,0E0,0E0,0E0],"parents":[2147483647,0,0,1,1,2,2],"right_children":[2,4,6,-1,-1,-1,-1],"split_conditions":[2E0,1.3E3,1.3E4,3.0706532E-3,-1.2639997E-2,2.1439899E-2,-1.50886355E-2],"split_indices":[10,20,18,0,0,0,0],"split_type":[0,0,0,0,0,0,0],"sum_hessian":[2.43429E3,2.1059512E3,3.283388E2,1.0759052E3,1.0300461E3,3.194908E2,8.848003E0],"tree_param":{"num_deleted":"0","num_feature":"23","num_nodes":"7","size_leaf_vector":"1"}},{"base_weights":[-4.56274E-2,-2.058282E-1,2.8706318E-1,4.5051835E-3,-1.2765721E-2,4.1299746E-3,1.8509787E-2],"categories":[],"categories_nodes":[],"categories_segments":[],"categories_sizes":[],"default_left":[0,0,0,0,0,0,0],"id":40,"left_children":[1,3,5,-1,-1,-1,-1],"loss_changes":[1.2897298E2,6.3802505E1,2.6675224E1,0E0,0E0,0E0,0E0],"parents":[2147483647,0,0,1,1,2,2],"right_children":[2,4,6,-1,-1,-1,-1],"split_conditions":[1E0,7E4,2E0,4.5051835E-3,-1.2765721E-2,4.1299746E-3,1.8509787E-2],"split_indices":[5,0,5,0,0,0,0],"split_type":[0,0,0,0,0,0,0],"sum_hessian":[2.4177698E3,1.6321975E3,7.855722E2,4.4782092E2,1.1843766E3,4.003788E2,3.851934E2],"tree_param":{"num_deleted":"0","num_feature":"23","num_nodes":"7","size_leaf_vector":"1"}},{"base_weights":[-3.7116565E-2,-1.3445225E-1,4.6166962E-1,8.78909E-3,-8.784398E-3,2.0037148E-2,2.4286814E-3],"categories":[],"categories_nodes":[],"categories_segments":[],"categories_sizes":[],"default_left":[0,0,0,0,0,0,0],"id":41,"left_children":[1,3,5,-1,-1,-1,-1],"loss_changes":[1.1719772E2,6.602251E1,8.170731E0,0E0,0E0,0E0,0E0],"parents":[2147483647,0,0,1,1,2,2],"right_children":[2,4,6,-1,-1,-1,-1],"split_conditions":[1E0,9E0,3E0,8.78909E-3,-8.784398E-3,2.0037148E-2,2.4286814E-3],"split_indices":[8,17,6,0,0,0,0],"split_type":[0,0,0,0,0,0,0],"sum_hessian":[2.4116958E3,2.0185217E3,3.931742E2,4.0639932E2,1.6121223E3,3.475482E2,4.5625988E1],"tree_param":{"num_deleted":"0","num_feature":"23","num_nodes":"7","size_leaf_vector":"1"}},{"base_weights":[-4.0299714E-2,-1.3949266E-1,4.8319978E-1,7.4475934E-4,-1.552446E-2,-6.445501E-3,2.0876735E-2],"categories":[],"categories_nodes":[],"categories_segments":[],"categories_sizes":[],"default_left":[0,0,0,0,0,0,0],"id":42,"left_children":[1,3,5,-1,-1,-1,-1],"loss_changes":[1.2438902E2,8.257559E1,1.2981293E1,0E0,0E0,0E0,0E0],"parents":[2147483647,0,0,1,1,2,2],"right_children":[2,4,6,-1,-1,-1,-1],"split_conditions":[2E0,2.004E3,1.922E3,7.4475934E-4,-1.552446E-2,-6.445501E-3,2.0876735E-2],"split_indices":[5,20,11,0,0,0,0],"split_type":[0,0,0,0,0,0,0],"sum_hessian":[2.3931404E3,2.0125372E3,3.8060303E2,1.2480168E3,7.645204E2,2.8143757E1,3.5245926E2],"tree_param":{"num_deleted":"0","num_feature":"23","num_nodes":"7","size_leaf_vector":"1"}},{"base_weights":[-2.5733942E-2,-1.1898332E-1,4.6095E-1,1.5059501E-3,-1.4675697E-2,-2.2636393E-2,1.93765E-2],"categories":[],"categories_nodes":[],"categories_segments":[],"categories_sizes":[],"default_left":[0,0,0,0,0,0,0],"id":43,"left_children":[1,3,5,-1,-1,-1,-1],"loss_changes":[1.08635414E2,8.146937E1,1.4671593E1,0E0,0E0,0E0,0E0],"parents":[2147483647,0,0,1,1,2,2],"right_children":[2,4,6,-1,-1,-1,-1],"split_conditions":[2E0,2.004E3,5.81E2,1.5059501E-3,-1.4675697E-2,-2.2636393E-2,1.93765E-2],"split_indices":[5,20,11,0,0,0,0],"split_type":[0,0,0,0,0,0,0],"sum_hessian":[2.3915396E3,2.0076302E3,3.839095E2,1.2455961E3,7.620342E2,1.2282528E1,3.7162695E2],"tree_param":{"num_deleted":"0","num_feature":"23","num_nodes":"7","size_leaf_vector":"1"}},{"base_weights":[-3.3319417E-2,-1.14313856E-1,4.849602E-1,-8.8234665E-3,7.162876E-3,2.0137558E-2,-2.0332508E-2],"categories":[],"categories_nodes":[],"categories_segments":[],"categories_sizes":[],"default_left":[0,0,0,0,0,0,0],"id":44,"left_children":[1,3,5,-1,-1,-1,-1],"loss_changes":[9.9556564E1,6.843965E1,1.0393921E1,0E0,0E0,0E0,0E0],"parents":[2147483647,0,0,1,1,2,2],"right_children":[2,4,6,-1,-1,-1,-1],"split_conditions":[2E0,1E0,1.3E4,-8.8234665E-3,7.162876E-3,2.0137558E-2,-2.0332508E-2],"split_indices":[10,5,18,0,0,0,0],"split_type":[0,0,0,0,0,0,0],"sum_hessian":[2.3693293E3,2.0497786E3,3.1955084E2,1.4902416E3,5.595369E2,3.1035745E2,9.193401E0],"tree_param":{"num_deleted":"0","num_feature":"23","num_nodes":"7","size_leaf_vector":"1"}},{"base_weights":[-2.4398725E-2,-1.0532566E-1,4.8801646E-1,1.4199172E-3,-1.388221E-2,4.172541E-2,1.7626142E-2],"categories":[],"categories_nodes":[],"categories_segments":[],"categories_sizes":[],"default_left":[0,0,0,0,0,0,0],"id":45,"left_children":[1,3,5,-1,-1,-1,-1],"loss_changes":[9.954328E1,7.364477E1,6.3870544E0,0E0,0E0,0E0,0E0],"parents":[2147483647,0,0,1,1,2,2],"right_children":[2,4,6,-1,-1,-1,-1],"split_conditions":[2E0,2.071E3,0E0,1.4199172E-3,-1.388221E-2,4.172541E-2,1.7626142E-2],"split_indices":[10,20,5,0,0,0,0],"split_type":[0,0,0,0,0,0,0],"sum_hessian":[2.3982336E3,2.0718206E3,3.2641306E2,1.3239586E3,7.4786194E2,1.7377346E1,3.090357E2],"tree_param":{"num_deleted":"0","num_feature":"23","num_nodes":"7","size_leaf_vector":"1"}},{"base_weights":[-2.6765727E-2,-1.2756363E-1,3.7790173E-1,3.847288E-3,-1.1895713E-2,1.3449139E-2,3.5674658E-2],"categories":[],"categories_nodes":[],"categories_segments":[],"categories_sizes":[],"default_left":[0,0,0,0,0,0,0],"id":46,"left_children":[1,3,5,-1,-1,-1,-1],"loss_changes":[9.692818E1,7.638992E1,8.092949E0,0E0,0E0,0E0,0E0],"parents":[2147483647,0,0,1,1,2,2],"right_children":[2,4,6,-1,-1,-1,-1],"split_conditions":[2E0,1.7E3,1.6599E5,3.847288E-3,-1.1895713E-2,1.3449139E-2,3.5674658E-2],"split_indices":[7,17,13,0,0,0,0],"split_type":[0,0,0,0,0,0,0],"sum_hessian":[2.374113E3,1.901225E3,4.7288797E2,8.3598676E2,1.0652382E3,4.4700867E2,2.587929E1],"tree_param":{"num_deleted":"0","num_feature":"23","num_nodes":"7","size_leaf_vector":"1"}},{"base_weights":[-3.0985173E-2,-1.0629795E-1,4.46498E-1,7.187812E-3,-8.764875E-3,2.3623256E-2,1.1563965E-2],"categories":[],"categories_nodes":[],"categories_segments":[],"categories_sizes":[],"default_left":[0,0,0,0,0,0,0],"id":47,"left_children":[1,3,5,-1,-1,-1,-1],"loss_changes":[8.550226E1,7.071838E1,7.556778E0,0E0,0E0,0E0,0E0],"parents":[2147483647,0,0,1,1,2,2],"right_children":[2,4,6,-1,-1,-1,-1],"split_conditions":[2E0,4.66E2,1.63E3,7.187812E-3,-8.764875E-3,2.3623256E-2,1.1563965E-2],"split_indices":[10,19,18,0,0,0,0],"split_type":[0,0,0,0,0,0,0],"sum_hessian":[2.3753462E3,2.0524011E3,3.229451E2,5.941316E2,1.4582695E3,1.5517326E2,1.6777182E2],"tree_param":{"num_deleted":"0","num_feature":"23","num_nodes":"7","size_leaf_vector":"1"}},{"base_weights":[-2.5606623E-2,-1.1391865E-1,4.3206456E-1,5.904297E-3,-9.734223E-3,-1.11824665E-2,1.907651E-2],"categories":[],"categories_nodes":[],"categories_segments":[],"categories_sizes":[],"default_left":[0,0,0,0,0,0,0],"id":48,"left_children":[1,3,5,-1,-1,-1,-1],"loss_changes":[9.5127205E1,7.1047165E1,1.5759087E1,0E0,0E0,0E0,0E0],"parents":[2147483647,0,0,1,1,2,2],"right_children":[2,4,6,-1,-1,-1,-1],"split_conditions":[2E0,8E2,1.815E3,5.904297E-3,-9.734223E-3,-1.11824665E-2,1.907651E-2],"split_indices":[5,19,11,0,0,0,0],"split_type":[0,0,0,0,0,0,0],"sum_hessian":[2.3513752E3,1.9716731E3,3.7970206E2,6.670893E2,1.3045839E3,2.7636656E1,3.520654E2],"tree_param":{"num_deleted":"0","num_feature":"23","num_nodes":"7","size_leaf_vector":"1"}},{"base_weights":[-1.2699162E-2,-1.4159381E-1,2.4514225E-1,1.4713706E-2,-8.5313115E-3,-5.3925443E-5,1.2871603E-2],"categories":[],"categories_nodes":[],"categories_segments":[],"categories_sizes":[],"default_left":[0,0,0,0,0,0,0],"id":49,"left_children":[1,3,5,-1,-1,-1,-1],"loss_changes":[7.8164925E1,6.2856804E1,1.6406998E1,0E0,0E0,0E0,0E0],"parents":[2147483647,0,0,1,1,2,2],"right_children":[2,4,6,-1,-1,-1,-1],"split_conditions":[1E0,8.82E2,0E0,1.4713706E-2,-8.5313115E-3,-5.3925443E-5,1.2871603E-2],"split_indices":[5,11,7,0,0,0,0],"split_type":[0,0,0,0,0,0,0],"sum_hessian":[2.3498853E3,1.5669962E3,7.828889E2,2.0234985E2,1.3646464E3,2.007999E2,5.8208905E2],"tree_param":{"num_deleted":"0","num_feature":"23","num_nodes":"7","size_leaf_vector":"1"}},{"base_weights":[-9.4003435E-3,-9.3183346E-2,4.3001676E-1,7.029275E-3,-8.202384E-3,-2.3620754E-2,1.821733E-2],"categories":[],"categories_nodes":[],"categories_segments":[],"categories_sizes":[],"default_left":[0,0,0,0,0,0,0],"id":50,"left_children":[1,3,5,-1,-1,-1,-1],"loss_changes":[8.648792E1,6.322484E1,1.4735527E1,0E0,0E0,0E0,0E0],"parents":[2147483647,0,0,1,1,2,2],"right_children":[2,4,6,-1,-1,-1,-1],"split_conditions":[2E0,7E4,5.81E2,7.029275E-3,-8.202384E-3,-2.3620754E-2,1.821733E-2],"split_indices":[5,0,11,0,0,0,0],"split_type":[0,0,0,0,0,0,0],"sum_hessian":[2.3471257E3,1.971929E3,3.7519678E2,5.912534E2,1.3806754E3,1.2443555E1,3.6275323E2],"tree_param":{"num_deleted":"0","num_feature":"23","num_nodes":"7","size_leaf_vector":"1"}},{"base_weights":[-4.6218477E-2,-1.15791194E-1,4.0804484E-1,4.5616343E-3,-9.26327E-3,1.670895E-2,-2.6125778E-2],"categories":[],"categories_nodes":[],"categories_segments":[],"categories_sizes":[],"default_left":[0,0,0,0,0,0,0],"id":51,"left_children":[1,3,5,-1,-1,-1,-1],"loss_changes":[7.411694E1,5.763359E1,7.1332245E0,0E0,0E0,0E0,0E0],"parents":[2147483647,0,0,1,1,2,2],"right_children":[2,4,6,-1,-1,-1,-1],"split_conditions":[2E0,8E2,1.5004E4,4.5616343E-3,-9.26327E-3,1.670895E-2,-2.6125778E-2],"split_indices":[9,19,18,0,0,0,0],"split_type":[0,0,0,0,0,0,0],"sum_hessian":[2.3426562E3,2.032165E3,3.1049124E2,6.978502E2,1.3343148E3,3.053185E2,5.172716E0],"tree_param":{"num_deleted":"0","num_feature":"23","num_nodes":"7","size_leaf_vector":"1"}},{"base_weights":[-1.875064E-2,-1.1002854E-1,3.4415537E-1,3.5169504E-3,-1.0410378E-2,1.2225048E-2,3.3534802E-2],"categories":[],"categories_nodes":[],"categories_segments":[],"categories_sizes":[],"default_left":[0,0,0,0,0,0,0],"id":52,"left_children":[1,3,5,-1,-1,-1,-1],"loss_changes":[7.735228E1,5.8631516E1,7.1589317E0,0E0,0E0,0E0,0E0],"parents":[2147483647,0,0,1,1,2,2],"right_children":[2,4,6,-1,-1,-1,-1],"split_conditions":[1E0,1.66E3,1.63783E5,3.5169504E-3,-1.0410378E-2,1.2225048E-2,3.3534802E-2],"split_indices":[7,17,14,0,0,0,0],"split_type":[0,0,0,0,0,0,0],"sum_hessian":[2.3329988E3,1.86469E3,4.683089E2,8.194776E2,1.0452124E3,4.4352057E2,2.4788343E1],"tree_param":{"num_deleted":"0","num_feature":"23","num_nodes":"7","size_leaf_vector":"1"}},{"base_weights":[-1.1021291E-2,-8.644764E-2,3.8729095E-1,5.2637863E-3,-8.622175E-3,-9.3577895E-3,1.7220302E-2],"categories":[],"categories_nodes":[],"categories_segments":[],"categories_sizes":[],"default_left":[0,0,0,0,0,0,0],"id":53,"left_children":[1,3,5,-1,-1,-1,-1],"loss_changes":[7.008361E1,5.8494316E1,1.2745483E1,0E0,0E0,0E0,0E0],"parents":[2147483647,0,0,1,1,2,2],"right_children":[2,4,6,-1,-1,-1,-1],"split_conditions":[2E0,1.372E3,1.815E3,5.2637863E-3,-8.622175E-3,-9.3577895E-3,1.7220302E-2],"split_indices":[5,17,11,0,0,0,0],"split_type":[0,0,0,0,0,0,0],"sum_hessian":[2.3306433E3,1.960228E3,3.7041537E2,7.412227E2,1.2190054E3,2.92173E1,3.411981E2],"tree_param":{"num_deleted":"0","num_feature":"23","num_nodes":"7","size_leaf_vector":"1"}},{"base_weights":[-3.923894E-2,-1.06236935E-1,3.7526003E-1,5.826424E-3,-8.239457E-3,-6.0667945E-3,1.6225778E-2],"categories":[],"categories_nodes":[],"categories_segments":[],"categories_sizes":[],"default_left":[0,0,0,0,0,0,0],"id":54,"left_children":[1,3,5,-1,-1,-1,-1],"loss_changes":[6.488881E1,5.4026146E1,7.10408E0,0E0,0E0,0E0,0E0],"parents":[2147483647,0,0,1,1,2,2],"right_children":[2,4,6,-1,-1,-1,-1],"split_conditions":[2E0,3.96E2,2.023E3,5.826424E-3,-8.239457E-3,-6.0667945E-3,1.6225778E-2],"split_indices":[10,19,13,0,0,0,0],"split_type":[0,0,0,0,0,0,0],"sum_hessian":[2.3341658E3,2.010018E3,3.2414774E2,5.852275E2,1.4247905E3,2.2928019E1,3.012197E2],"tree_param":{"num_deleted":"0","num_feature":"23","num_nodes":"7","size_leaf_vector":"1"}},{"base_weights":[-1.6960181E-2,-9.405176E-2,3.6926323E-1,8.612459E-3,-6.968215E-3,1.55237345E-2,-2.7812745E-2],"categories":[],"categories_nodes":[],"categories_segments":[],"categories_sizes":[],"default_left":[0,0,0,0,0,0,0],"id":55,"left_children":[1,3,5,-1,-1,-1,-1],"loss_changes":[6.932734E1,5.1753418E1,1.235368E1,0E0,0E0,0E0,0E0],"parents":[2147483647,0,0,1,1,2,2],"right_children":[2,4,6,-1,-1,-1,-1],"split_conditions":[2E0,9E0,1.5004E4,8.612459E-3,-6.968215E-3,1.55237345E-2,-2.7812745E-2],"split_indices":[8,17,18,0,0,0,0],"split_type":[0,0,0,0,0,0,0],"sum_hessian":[2.3262412E3,1.9398055E3,3.8643564E2,4.1053595E2,1.5292695E3,3.770424E2,9.393271E0],"tree_param":{"num_deleted":"0","num_feature":"23","num_nodes":"7","size_leaf_vector":"1"}},{"base_weights":[-2.892607E-2,-1.0367282E-1,3.6672217E-1,4.3672533E-3,-8.7250415E-3,-1.5071777E-2,1.5394036E-2],"categories":[],"categories_nodes":[],"categories_segments":[],"categories_sizes":[],"default_left":[0,0,0,0,0,0,0],"id":56,"left_children":[1,3,5,-1,-1,-1,-1],"loss_changes":[6.8210495E1,5.0240097E1,7.8811684E0,0E0,0E0,0E0,0E0],"parents":[2147483647,0,0,1,1,2,2],"right_children":[2,4,6,-1,-1,-1,-1],"split_conditions":[2E0,8.71E2,5.81E2,4.3672533E-3,-8.7250415E-3,-1.5071777E-2,1.5394036E-2],"split_indices":[5,19,11,0,0,0,0],"split_type":[0,0,0,0,0,0,0],"sum_hessian":[2.304194E3,1.9386736E3,3.6552057E2,6.9329315E2,1.2453804E3,1.2641096E1,3.5287946E2],"tree_param":{"num_deleted":"0","num_feature":"23","num_nodes":"7","size_leaf_vector":"1"}},{"base_weights":[-9.699052E-3,-7.678498E-2,3.4399682E-1,4.498819E-3,-8.598075E-3,1.4082076E-2,-5.660756E-2],"categories":[],"categories_nodes":[],"categories_segments":[],"categories_sizes":[],"default_left":[0,0,0,0,0,0,0],"id":57,"left_children":[1,3,5,-1,-1,-1,-1],"loss_changes":[5.4679527E1,5.3496365E1,1.179248E1,0E0,0E0,0E0,0E0],"parents":[2147483647,0,0,1,1,2,2],"right_children":[2,4,6,-1,-1,-1,-1],"split_conditions":[2E0,9.46E2,4E0,4.498819E-3,-8.598075E-3,1.4082076E-2,-5.660756E-2],"split_indices":[5,22,2,0,0,0,0],"split_type":[0,0,0,0,0,0,0],"sum_hessian":[2.3023157E3,1.9359117E3,3.6640384E2,8.283575E2,1.1075543E3,3.6374213E2,2.6617258E0],"tree_param":{"num_deleted":"0","num_feature":"23","num_nodes":"7","size_leaf_vector":"1"}},{"base_weights":[-1.5194943E-2,-8.7311484E-2,3.461804E-1,6.681436E-3,-6.9246283E-3,1.43626295E-2,-2.2977367E-2],"categories":[],"categories_nodes":[],"categories_segments":[],"categories_sizes":[],"default_left":[0,0,0,0,0,0,0],"id":58,"left_children":[1,3,5,-1,-1,-1,-1],"loss_changes":[5.9814644E1,4.4683044E1,8.107147E0,0E0,0E0,0E0,0E0],"parents":[2147483647,0,0,1,1,2,2],"right_children":[2,4,6,-1,-1,-1,-1],"split_conditions":[1E0,3.96E2,1.5004E4,6.681436E-3,-6.9246283E-3,1.43626295E-2,-2.2977367E-2],"split_indices":[8,18,18,0,0,0,0],"split_type":[0,0,0,0,0,0,0],"sum_hessian":[2.2930066E3,1.9121698E3,3.8083673E2,4.9438855E2,1.4177812E3,3.7264148E2,8.195248E0],"tree_param":{"num_deleted":"0","num_feature":"23","num_nodes":"7","size_leaf_vector":"1"}},{"base_weights":[-1.5701376E-2,1.6625144E-1,-1.5295707E-1,1.338252E-2,1.9291058E-3,7.328638E-3,-1.0056024E-2],"categories":[],"categories_nodes":[],"categories_segments":[],"categories_sizes":[],"default_left":[0,0,0,0,0,0,0],"id":59,"left_children":[1,3,5,-1,-1,-1,-1],"loss_changes":[5.7652508E1,2.0490011E1,4.7093773E1,0E0,0E0,0E0,0E0],"parents":[2147483647,0,0,1,1,2,2],"right_children":[2,4,6,-1,-1,-1,-1],"split_conditions":[1E5,2E0,1.05E2,1.338252E-2,1.9291058E-3,7.328638E-3,-1.0056024E-2],"split_indices":[0,3,17,0,0,0,0],"split_type":[0,0,0,0,0,0,0],"sum_hessian":[2.3064773E3,9.916658E2,1.3148115E3,3.935868E2,5.98079E2,3.091955E2,1.005616E3],"tree_param":{"num_deleted":"0","num_feature":"23","num_nodes":"7","size_leaf_vector":"1"}},{"base_weights":[-2.9904917E-2,-1.00761905E-1,2.5233644E-1,9.19756E-4,-1.2367463E-2,8.598531E-3,2.9092547E-2],"categories":[],"categories_nodes":[],"categories_segments":[],"categories_sizes":[],"default_left":[0,0,0,0,0,0,0],"id":60,"left_children":[1,3,5,-1,-1,-1,-1],"loss_changes":[4.582525E1,4.9273396E1,7.067873E0,0E0,0E0,0E0,0E0],"parents":[2147483647,0,0,1,1,2,2],"right_children":[2,4,6,-1,-1,-1,-1],"split_conditions":[1E0,3E3,1.63783E5,9.19756E-4,-1.2367463E-2,8.598531E-3,2.9092547E-2],"split_indices":[7,17,14,0,0,0,0],"split_type":[0,0,0,0,0,0,0],"sum_hessian":[2.2891316E3,1.8302806E3,4.5885092E2,1.1628442E3,6.6743646E2,4.3238885E2,2.6462063E1],"tree_param":{"num_deleted":"0","num_feature":"23","num_nodes":"7","size_leaf_vector":"1"}},{"base_weights":[-2.0924538E-2,-8.561986E-2,3.8024297E-1,1.07302396E-4,-1.460382E-2,1.5939571E-2,-1.6960068E-2],"categories":[],"categories_nodes":[],"categories_segments":[],"categories_sizes":[],"default_left":[0,0,0,0,0,0,0],"id":61,"left_children":[1,3,5,-1,-1,-1,-1],"loss_changes":[5.979856E1,5.0637764E1,7.6016808E0,0E0,0E0,0E0,0E0],"parents":[2147483647,0,0,1,1,2,2],"right_children":[2,4,6,-1,-1,-1,-1],"split_conditions":[2E0,5E3,1.3E4,1.07302396E-4,-1.460382E-2,1.5939571E-2,-1.6960068E-2],"split_indices":[10,18,18,0,0,0,0],"split_type":[0,0,0,0,0,0,0],"sum_hessian":[2.3017966E3,1.9828187E3,3.1897784E2,1.5190485E3,4.6377032E2,3.0869672E2,1.0281129E1],"tree_param":{"num_deleted":"0","num_feature":"23","num_nodes":"7","size_leaf_vector":"1"}},{"base_weights":[-2.8013112E-3,1.2993763E-1,-1.6779208E-1,6.065181E-3,-2.4780639E-2,-9.238626E-3,1.9448878E-2],"categories":[],"categories_nodes":[],"categories_segments":[],"categories_sizes":[],"default_left":[0,0,0,0,0,0,0],"id":62,"left_children":[1,3,5,-1,-1,-1,-1],"loss_changes":[5.001847E1,2.487676E1,4.700862E1,0E0,0E0,0E0,0E0],"parents":[2147483647,0,0,1,1,2,2],"right_children":[2,4,6,-1,-1,-1,-1],"split_conditions":[1.5E5,1.0132E4,2E0,6.065181E-3,-2.4780639E-2,-9.238626E-3,1.9448878E-2],"split_indices":[0,18,5,0,0,0,0],"split_type":[0,0,0,0,0,0,0],"sum_hessian":[2.28188E3,1.264651E3,1.0172289E3,1.2245208E3,4.0130234E1,9.2226044E2,9.496847E1],"tree_param":{"num_deleted":"0","num_feature":"23","num_nodes":"7","size_leaf_vector":"1"}},{"base_weights":[-2.3366313E-2,-9.497808E-2,2.5845033E-1,4.8993537E-3,-7.4923686E-3,5.3407312E-3,1.7260112E-2],"categories":[],"categories_nodes":[],"categories_segments":[],"categories_sizes":[],"default_left":[0,0,0,0,0,0,0],"id":63,"left_children":[1,3,5,-1,-1,-1,-1],"loss_changes":[4.6228558E1,3.915769E1,1.0323355E1,0E0,0E0,0E0,0E0],"parents":[2147483647,0,0,1,1,2,2],"right_children":[2,4,6,-1,-1,-1,-1],"split_conditions":[2E0,3.92E2,3.7E1,4.8993537E-3,-7.4923686E-3,5.3407312E-3,1.7260112E-2],"split_indices":[7,20,4,0,0,0,0],"split_type":[0,0,0,0,0,0,0],"sum_hessian":[2.2884368E3,1.8252817E3,4.6315506E2,5.5790985E2,1.2673718E3,2.800673E2,1.8308777E2],"tree_param":{"num_deleted":"0","num_feature":"23","num_nodes":"7","size_leaf_vector":"1"}},{"base_weights":[-1.4093092E-2,-7.024533E-2,3.4352314E-1,7.3933373E-3,-5.9604384E-3,1.6095517E-2,-7.7135973E-3],"categories":[],"categories_nodes":[],"categories_segments":[],"categories_sizes":[],"default_left":[0,0,0,0,0,0,0],"id":64,"left_children":[1,3,5,-1,-1,-1,-1],"loss_changes":[4.576466E1,4.2289783E1,1.1664188E1,0E0,0E0,0E0,0E0],"parents":[2147483647,0,0,1,1,2,2],"right_children":[2,4,6,-1,-1,-1,-1],"split_conditions":[2E0,1.8E1,3E0,7.3933373E-3,-5.9604384E-3,1.6095517E-2,-7.7135973E-3],"split_indices":[9,19,6,0,0,0,0],"split_type":[0,0,0,0,0,0,0],"sum_hessian":[2.2768066E3,1.9685173E3,3.0828937E2,4.7448505E2,1.4940322E3,2.7356384E2,3.4725533E1],"tree_param":{"num_deleted":"0","num_feature":"23","num_nodes":"7","size_leaf_vector":"1"}},{"base_weights":[-1.2029206E-2,5.2282438E-2,-3.0488062E-1,-6.1886956E-4,1.1034899E-2,-1.5574117E-2,1.6641177E-2],"categories":[],"categories_nodes":[],"categories_segments":[],"categories_sizes":[],"default_left":[0,0,0,0,0,0,0],"id":65,"left_children":[1,3,5,-1,-1,-1,-1],"loss_changes":[4.2534977E1,2.9116909E1,2.8270924E1,0E0,0E0,0E0,0E0],"parents":[2147483647,0,0,1,1,2,2],"right_children":[2,4,6,-1,-1,-1,-1],"split_conditions":[2.7E5,1E0,2.55412E5,-6.1886956E-4,1.1034899E-2,-1.5574117E-2,1.6641177E-2],"split_indices":[0,7,11,0,0,0,0],"split_type":[0,0,0,0,0,0,0],"sum_hessian":[2.2565974E3,1.8509426E3,4.0565485E2,1.4295155E3,4.214272E2,3.5967102E2,4.5983833E1],"tree_param":{"num_deleted":"0","num_feature":"23","num_nodes":"7","size_leaf_vector":"1"}},{"base_weights":[-1.3649357E-2,-7.2293475E-2,3.5169768E-1,6.512449E-5,-1.2516794E-2,-1.6044019E-2,1.4963681E-2],"categories":[],"categories_nodes":[],"categories_segments":[],"categories_sizes":[],"default_left":[0,0,0,0,0,0,0],"id":66,"left_children":[1,3,5,-1,-1,-1,-1],"loss_changes":[4.8875137E1,3.6147263E1,7.8592796E0,0E0,0E0,0E0,0E0],"parents":[2147483647,0,0,1,1,2,2],"right_children":[2,4,6,-1,-1,-1,-1],"split_conditions":[2E0,5E3,9.55E2,6.512449E-5,-1.2516794E-2,-1.6044019E-2,1.4963681E-2],"split_indices":[10,18,16,0,0,0,0],"split_type":[0,0,0,0,0,0,0],"sum_hessian":[2.2789849E3,1.9644594E3,3.1452545E2,1.5148468E3,4.4961258E2,1.2176483E1,3.0234897E2],"tree_param":{"num_deleted":"0","num_feature":"23","num_nodes":"7","size_leaf_vector":"1"}},{"base_weights":[-9.026747E-3,3.832759E-2,-4.5513082E-1,1.2028658E-2,-1.075275E-3,-2.2980405E-2,7.102308E-3],"categories":[],"categories_nodes":[],"categories_segments":[],"categories_sizes":[],"default_left":[0,0,0,0,0,0,0],"id":67,"left_children":[1,3,5,-1,-1,-1,-1],"loss_changes":[4.7776966E1,3.64039E1,1.8655197E1,0E0,0E0,0E0,0E0],"parents":[2147483647,0,0,1,1,2,2],"right_children":[2,4,6,-1,-1,-1,-1],"split_conditions":[1E4,5E4,2.44629E5,1.2028658E-2,-1.075275E-3,-2.2980405E-2,7.102308E-3],"split_indices":[18,0,12,0,0,0,0],"split_type":[0,0,0,0,0,0,0],"sum_hessian":[2.2598096E3,2.043775E3,2.1603442E2,4.0012018E2,1.6436549E3,1.7853604E2,3.749839E1],"tree_param":{"num_deleted":"0","num_feature":"23","num_nodes":"7","size_leaf_vector":"1"}},{"base_weights":[-9.035215E-3,1.0236582E-1,-1.5091276E-1,4.820904E-3,-2.116487E-2,6.1838604E-3,-1.0498397E-2],"categories":[],"categories_nodes":[],"categories_segments":[],"categories_sizes":[],"default_left":[0,0,0,0,0,0,0],"id":68,"left_children":[1,3,5,-1,-1,-1,-1],"loss_changes":[3.5964355E1,1.7537262E1,3.667564E1,0E0,0E0,0E0,0E0],"parents":[2147483647,0,0,1,1,2,2],"right_children":[2,4,6,-1,-1,-1,-1],"split_conditions":[1.5E5,1.0132E4,3.3E2,4.820904E-3,-2.116487E-2,6.1838604E-3,-1.0498397E-2],"split_indices":[0,18,18,0,0,0,0],"split_type":[0,0,0,0,0,0,0],"sum_hessian":[2.2734834E3,1.2736796E3,9.9980383E2,1.2338469E3,3.9832634E1,2.7636087E2,7.23443E2],"tree_param":{"num_deleted":"0","num_feature":"23","num_nodes":"7","size_leaf_vector":"1"}},{"base_weights":[-2.4033325E-2,-8.627239E-2,3.057992E-1,4.8093144E-3,-7.885124E-3,1.2625881E-2,-4.3777235E-2],"categories":[],"categories_nodes":[],"categories_segments":[],"categories_sizes":[],"default_left":[0,0,0,0,0,0,0],"id":69,"left_children":[1,3,5,-1,-1,-1,-1],"loss_changes":[4.6268597E1,4.6080017E1,9.532326E0,0E0,0E0,0E0,0E0],"parents":[2147483647,0,0,1,1,2,2],"right_children":[2,4,6,-1,-1,-1,-1],"split_conditions":[2E0,5.77E2,4E0,4.8093144E-3,-7.885124E-3,1.2625881E-2,-4.3777235E-2],"split_indices":[5,20,2,0,0,0,0],"split_type":[0,0,0,0,0,0,0],"sum_hessian":[2.2515898E3,1.8947844E3,3.5680548E2,6.747117E2,1.2200728E3,3.5314285E2,3.6626253E0],"tree_param":{"num_deleted":"0","num_feature":"23","num_nodes":"7","size_leaf_vector":"1"}},{"base_weights":[-1.4799857E-2,1.5077146E-2,-5.848684E-1,5.758557E-3,-3.4629824E-3,-2.5551477E-2,2.0384023E-2],"categories":[],"categories_nodes":[],"categories_segments":[],"categories_sizes":[],"default_left":[0,0,0,0,0,0,0],"id":70,"left_children":[1,3,5,-1,-1,-1,-1],"loss_changes":[3.8724014E1,2.9770668E1,9.157753E0,0E0,0E0,0E0,0E0],"parents":[2147483647,0,0,1,1,2,2],"right_children":[2,4,6,-1,-1,-1,-1],"split_conditions":[1.5004E4,9.46E2,2E0,5.758557E-3,-3.4629824E-3,-2.5551477E-2,2.0384023E-2],"split_indices":[18,22,5,0,0,0,0],"split_type":[0,0,0,0,0,0,0],"sum_hessian":[2.272094E3,2.1598699E3,1.1222413E2,9.486383E2,1.2112314E3,1.05910225E2,6.313908E0],"tree_param":{"num_deleted":"0","num_feature":"23","num_nodes":"7","size_leaf_vector":"1"}},{"base_weights":[9.252103E-3,3.8458224E-2,-5.5227214E-1,-5.3335936E-4,1.1689464E-2,-2.4302699E-2,1.8540006E-2],"categories":[],"categories_nodes":[],"categories_segments":[],"categories_sizes":[],"default_left":[0,0,0,0,0,0,0],"id":71,"left_children":[1,3,5,-1,-1,-1,-1],"loss_changes":[3.701155E1,2.922061E1,8.423016E0,0E0,0E0,0E0,0E0],"parents":[2147483647,0,0,1,1,2,2],"right_children":[2,4,6,-1,-1,-1,-1],"split_conditions":[1.5004E4,2E0,3.62533E5,-5.3335936E-4,1.1689464E-2,-2.4302699E-2,1.8540006E-2],"split_indices":[18,5,12,0,0,0,0],"split_type":[0,0,0,0,0,0,0],"sum_hessian":[2.2545146E3,2.1439353E3,1.1057931E2,1.788088E3,3.558472E2,1.03813286E2,6.7660217E0],"tree_param":{"num_deleted":"0","num_feature":"23","num_nodes":"7","size_leaf_vector":"1"}},{"base_weights":[-5.639728E-3,1.9241497E-2,-6.543982E-1,-1.2071583E-3,1.02850385E-2,-8.973042E-3,-3.169769E-2],"categories":[],"categories_nodes":[],"categories_segments":[],"categories_sizes":[],"default_left":[0,0,0,0,0,0,0],"id":72,"left_children":[1,3,5,-1,-1,-1,-1],"loss_changes":[3.6458942E1,2.6703878E1,5.418831E0,0E0,0E0,0E0,0E0],"parents":[2147483647,0,0,1,1,2,2],"right_children":[2,4,6,-1,-1,-1,-1],"split_conditions":[1.9648E4,1E0,6.146E3,-1.2071583E-3,1.02850385E-2,-8.973042E-3,-3.169769E-2],"split_indices":[18,8,11,0,0,0,0],"split_type":[0,0,0,0,0,0,0],"sum_hessian":[2.2568718E3,2.1744475E3,8.242421E1,1.8047776E3,3.6966998E2,2.3068089E1,5.9356117E1],"tree_param":{"num_deleted":"0","num_feature":"23","num_nodes":"7","size_leaf_vector":"1"}},{"base_weights":[-1.703891E-2,5.16656E-2,-2.6475006E-1,1.10327015E-2,-5.897003E-4,-1.6808983E-2,1.13835E-4],"categories":[],"categories_nodes":[],"categories_segments":[],"categories_sizes":[],"default_left":[0,0,0,0,0,0,0],"id":73,"left_children":[1,3,5,-1,-1,-1,-1],"loss_changes":[3.816409E1,2.7117582E1,2.1668304E1,0E0,0E0,0E0,0E0],"parents":[2147483647,0,0,1,1,2,2],"right_children":[2,4,6,-1,-1,-1,-1],"split_conditions":[5E3,5E4,9.6724E4,1.10327015E-2,-5.897003E-4,-1.6808983E-2,1.13835E-4],"split_indices":[18,0,15,0,0,0,0],"split_type":[0,0,0,0,0,0,0],"sum_hessian":[2.240653E3,1.7547513E3,4.859018E2,3.925265E2,1.3622249E3,2.993592E2,1.865426E2],"tree_param":{"num_deleted":"0","num_feature":"23","num_nodes":"7","size_leaf_vector":"1"}},{"base_weights":[-1.0935357E-2,-5.9115257E-2,2.9240173E-1,3.4562547E-3,-6.527142E-3,1.3175327E-2,-2.8648083E-3],"categories":[],"categories_nodes":[],"categories_segments":[],"categories_sizes":[],"default_left":[0,0,0,0,0,0,0],"id":74,"left_children":[1,3,5,-1,-1,-1,-1],"loss_changes":[3.268122E1,3.087161E1,5.11887E0,0E0,0E0,0E0,0E0],"parents":[2147483647,0,0,1,1,2,2],"right_children":[2,4,6,-1,-1,-1,-1],"split_conditions":[2E0,8.73E2,3E0,3.4562547E-3,-6.527142E-3,1.3175327E-2,-2.8648083E-3],"split_indices":[9,22,6,0,0,0,0],"split_type":[0,0,0,0,0,0,0],"sum_hessian":[2.2339978E3,1.9284946E3,3.055032E2,8.15573E2,1.1129216E3,2.7182803E2,3.367519E1],"tree_param":{"num_deleted":"0","num_feature":"23","num_nodes":"7","size_leaf_vector":"1"}},{"base_weights":[9.239501E-3,-4.3468475E-2,2.909468E-1,2.2463875E-3,-8.850365E-3,-1.1235271E-2,1.3688782E-2],"categories":[],"categories_nodes":[],"categories_segments":[],"categories_sizes":[],"default_left":[0,0,0,0,0,0,0],"id":75,"left_children":[1,3,5,-1,-1,-1,-1],"loss_changes":[3.3241585E1,3.498499E1,1.236956E1,0E0,0E0,0E0,0E0],"parents":[2147483647,0,0,1,1,2,2],"right_children":[2,4,6,-1,-1,-1,-1],"split_conditions":[2E0,2.004E3,2.023E3,2.2463875E-3,-8.850365E-3,-1.1235271E-2,1.3688782E-2],"split_indices":[5,20,13,0,0,0,0],"split_type":[0,0,0,0,0,0,0],"sum_hessian":[2.2369067E3,1.885055E3,3.518517E2,1.2159103E3,6.691447E2,3.2703064E1,3.1914865E2],"tree_param":{"num_deleted":"0","num_feature":"23","num_nodes":"7","size_leaf_vector":"1"}},{"base_weights":[7.525368E-3,6.753349E-2,-2.307161E-1,-7.389459E-4,7.7496185E-3,-1.2232162E-2,1.3046027E-2],"categories":[],"categories_nodes":[],"categories_segments":[],"categories_sizes":[],"default_left":[0,0,0,0,0,0,0],"id":76,"left_children":[1,3,5,-1,-1,-1,-1],"loss_changes":[3.2116333E1,2.0359297E1,2.1291824E1,0E0,0E0,0E0,0E0],"parents":[2147483647,0,0,1,1,2,2],"right_children":[2,4,6,-1,-1,-1,-1],"split_conditions":[5.005E3,3.7E1,2.23526E5,-7.389459E-4,7.7496185E-3,-1.2232162E-2,1.3046027E-2],"split_indices":[17,4,12,0,0,0,0],"split_type":[0,0,0,0,0,0,0],"sum_hessian":[2.2443696E3,1.7933726E3,4.5099713E2,1.0813295E3,7.1204315E2,3.9368216E2,5.731498E1],"tree_param":{"num_deleted":"0","num_feature":"23","num_nodes":"7","size_leaf_vector":"1"}},{"base_weights":[-2.2751346E-2,-7.008715E-2,2.7210736E-1,2.9127705E-3,-6.7925677E-3,1.2387614E-2,-6.709621E-3],"categories":[],"categories_nodes":[],"categories_segments":[],"categories_sizes":[],"default_left":[0,0,0,0,0,0,0],"id":77,"left_children":[1,3,5,-1,-1,-1,-1],"loss_changes":[3.1333548E1,2.9155228E1,6.3339405E0,0E0,0E0,0E0,0E0],"parents":[2147483647,0,0,1,1,2,2],"right_children":[2,4,6,-1,-1,-1,-1],"split_conditions":[2E0,8.02E2,3E0,2.9127705E-3,-6.7925677E-3,1.2387614E-2,-6.709621E-3],"split_indices":[10,20,6,0,0,0,0],"split_type":[0,0,0,0,0,0,0],"sum_hessian":[2.242579E3,1.9330198E3,3.0955933E2,8.0858594E2,1.1244338E3,2.810387E2,2.852065E1],"tree_param":{"num_deleted":"0","num_feature":"23","num_nodes":"7","size_leaf_vector":"1"}},{"base_weights":[-1.0486076E-2,-5.5404253E-2,2.6931617E-1,6.357197E-3,-4.636574E-3,1.1752266E-2,-1.06605925E-2],"categories":[],"categories_nodes":[],"categories_segments":[],"categories_sizes":[],"default_left":[0,0,0,0,0,0,0],"id":78,"left_children":[1,3,5,-1,-1,-1,-1],"loss_changes":[2.8019928E1,2.665207E1,5.441845E0,0E0,0E0,0E0,0E0],"parents":[2147483647,0,0,1,1,2,2],"right_children":[2,4,6,-1,-1,-1,-1],"split_conditions":[2E0,9E0,4E0,6.357197E-3,-4.636574E-3,1.1752266E-2,-1.06605925E-2],"split_indices":[10,17,8,0,0,0,0],"split_type":[0,0,0,0,0,0,0],"sum_hessian":[2.227242E3,1.9198414E3,3.074006E2,4.319971E2,1.4878442E3,2.9069092E2,1.67097E1],"tree_param":{"num_deleted":"0","num_feature":"23","num_nodes":"7","size_leaf_vector":"1"}},{"base_weights":[1.3894454E-3,1.3227311E-1,-1.0001053E-1,8.872179E-3,5.3093274E-4,-3.8096536E-5,-1.0717561E-2],"categories":[],"categories_nodes":[],"categories_segments":[],"categories_sizes":[],"default_left":[0,0,0,0,0,0,0],"id":79,"left_children":[1,3,5,-1,-1,-1,-1],"loss_changes":[2.988591E1,1.1103596E1,2.1964863E1,0E0,0E0,0E0,0E0],"parents":[2147483647,0,0,1,1,2,2],"right_children":[2,4,6,-1,-1,-1,-1],"split_conditions":[9.46E2,9.928E3,2E5,8.872179E-3,5.3093274E-4,-3.8096536E-5,-1.0717561E-2],"split_indices":[22,11,0,0,0,0,0],"split_type":[0,0,0,0,0,0,0],"sum_hessian":[2.2498723E3,9.8201544E2,1.2678568E3,5.4431274E2,4.3770267E2,8.0996814E2,4.5788876E2],"tree_param":{"num_deleted":"0","num_feature":"23","num_nodes":"7","size_leaf_vector":"1"}},{"base_weights":[-1.2466874E-2,-5.9875663E-2,2.8131208E-1,4.966005E-3,-5.4901233E-3,1.2486153E-2,-4.178861E-3],"categories":[],"categories_nodes":[],"categories_segments":[],"categories_sizes":[],"default_left":[0,0,0,0,0,0,0],"id":80,"left_children":[1,3,5,-1,-1,-1,-1],"loss_changes":[3.0897894E1,2.8943714E1,4.686062E0,0E0,0E0,0E0,0E0],"parents":[2147483647,0,0,1,1,2,2],"right_children":[2,4,6,-1,-1,-1,-1],"split_conditions":[2E0,3.96E2,3E0,4.966005E-3,-5.4901233E-3,1.2486153E-2,-4.178861E-3],"split_indices":[10,19,6,0,0,0,0],"split_type":[0,0,0,0,0,0,0],"sum_hessian":[2.2162393E3,1.9089734E3,3.0726578E2,5.758295E2,1.3331439E3,2.7949274E2,2.7773043E1],"tree_param":{"num_deleted":"0","num_feature":"23","num_nodes":"7","size_leaf_vector":"1"}},{"base_weights":[-1.569978E-2,-6.0593024E-2,2.590623E-1,-3.8538517E-3,9.293336E-3,1.07032135E-2,-3.1145524E-2],"categories":[],"categories_nodes":[],"categories_segments":[],"categories_sizes":[],"default_left":[0,0,0,0,0,0,0],"id":81,"left_children":[1,3,5,-1,-1,-1,-1],"loss_changes":[2.7559958E1,2.1961002E1,5.323433E0,0E0,0E0,0E0,0E0],"parents":[2147483647,0,0,1,1,2,2],"right_children":[2,4,6,-1,-1,-1,-1],"split_conditions":[2E0,2E0,1.5558E4,-3.8538517E-3,9.293336E-3,1.07032135E-2,-3.1145524E-2],"split_indices":[9,5,22,0,0,0,0],"split_type":[0,0,0,0,0,0,0],"sum_hessian":[2.2320237E3,1.9192224E3,3.1280136E2,1.7022004E3,2.1702188E2,3.0904813E2,3.753216E0],"tree_param":{"num_deleted":"0","num_feature":"23","num_nodes":"7","size_leaf_vector":"1"}},{"base_weights":[-3.4668567E-3,2.0550067E-2,-4.972107E-1,4.856918E-3,-2.489509E-3,-2.209483E-2,2.2484802E-2],"categories":[],"categories_nodes":[],"categories_segments":[],"categories_sizes":[],"default_left":[0,0,0,0,0,0,0],"id":82,"left_children":[1,3,5,-1,-1,-1,-1],"loss_changes":[2.6576385E1,1.8762722E1,8.064901E0,0E0,0E0,0E0,0E0],"parents":[2147483647,0,0,1,1,2,2],"right_children":[2,4,6,-1,-1,-1,-1],"split_conditions":[1.5004E4,9.46E2,4.10877E5,4.856918E-3,-2.489509E-3,-2.209483E-2,2.2484802E-2],"split_indices":[18,22,13,0,0,0,0],"split_type":[0,0,0,0,0,0,0],"sum_hessian":[2.2393186E3,2.1363594E3,1.0295942E2,9.568067E2,1.1795526E3,9.715899E1,5.8004317E0],"tree_param":{"num_deleted":"0","num_feature":"23","num_nodes":"7","size_leaf_vector":"1"}},{"base_weights":[-2.0955922E-3,9.568324E-2,-1.2937054E-1,4.078753E-3,-3.212132E-2,-7.263812E-3,1.57551E-2],"categories":[],"categories_nodes":[],"categories_segments":[],"categories_sizes":[],"default_left":[0,0,0,0,0,0,0],"id":83,"left_children":[1,3,5,-1,-1,-1,-1],"loss_changes":[2.7807446E1,1.0425479E1,2.9526682E1,0E0,0E0,0E0,0E0],"parents":[2147483647,0,0,1,1,2,2],"right_children":[2,4,6,-1,-1,-1,-1],"split_conditions":[1.5E5,5E0,2E0,4.078753E-3,-3.212132E-2,-7.263812E-3,1.57551E-2],"split_indices":[0,2,5,0,0,0,0],"split_type":[0,0,0,0,0,0,0],"sum_hessian":[2.232469E3,1.2626714E3,9.697976E2,1.2514419E3,1.1229461E1,8.769251E2,9.287252E1],"tree_param":{"num_deleted":"0","num_feature":"23","num_nodes":"7","size_leaf_vector":"1"}},{"base_weights":[-6.888442E-3,1.10289015E-1,-1.0094534E-1,3.251915E-3,1.9246524E-2,5.1564896E-3,-7.512092E-3],"categories":[],"categories_nodes":[],"categories_segments":[],"categories_sizes":[],"default_left":[0,0,0,0,0,0,0],"id":84,"left_children":[1,3,5,-1,-1,-1,-1],"loss_changes":[2.455565E1,1.0188299E1,2.6442322E1,0E0,0E0,0E0,0E0],"parents":[2147483647,0,0,1,1,2,2],"right_children":[2,4,6,-1,-1,-1,-1],"split_conditions":[1E5,5.8615E4,3.3E2,3.251915E-3,1.9246524E-2,5.1564896E-3,-7.512092E-3],"split_indices":[0,14,18,0,0,0,0],"split_type":[0,0,0,0,0,0,0],"sum_hessian":[2.2259978E3,9.9109924E2,1.2348986E3,9.2721405E2,6.388524E1,3.483782E2,8.865204E2],"tree_param":{"num_deleted":"0","num_feature":"23","num_nodes":"7","size_leaf_vector":"1"}},{"base_weights":[-1.3953984E-3,2.1392612E-2,-4.745457E-1,-1.0312207E-3,9.694123E-3,-2.198644E-2,2.1353945E-2],"categories":[],"categories_nodes":[],"categories_segments":[],"categories_sizes":[],"default_left":[0,0,0,0,0,0,0],"id":85,"left_children":[1,3,5,-1,-1,-1,-1],"loss_changes":[2.3950804E1,2.3036694E1,9.615221E0,0E0,0E0,0E0,0E0],"parents":[2147483647,0,0,1,1,2,2],"right_children":[2,4,6,-1,-1,-1,-1],"split_conditions":[1.5004E4,1E0,3.62533E5,-1.0312207E-3,9.694123E-3,-2.198644E-2,2.1353945E-2],"split_indices":[18,8,12,0,0,0,0],"split_type":[0,0,0,0,0,0,0],"sum_hessian":[2.2193962E3,2.1183274E3,1.01068756E2,1.7506022E3,3.6772528E2,9.336787E1,7.7008886E0],"tree_param":{"num_deleted":"0","num_feature":"23","num_nodes":"7","size_leaf_vector":"1"}},{"base_weights":[-7.584533E-3,1.5122955E-2,-4.7695073E-1,-1.5840557E-4,1.8019293E-2,-2.224103E-2,2.8630685E-2],"categories":[],"categories_nodes":[],"categories_segments":[],"categories_sizes":[],"default_left":[0,0,0,0,0,0,0],"id":86,"left_children":[1,3,5,-1,-1,-1,-1],"loss_changes":[2.3573822E1,1.8093237E1,1.1955488E1,0E0,0E0,0E0,0E0],"parents":[2147483647,0,0,1,1,2,2],"right_children":[2,4,6,-1,-1,-1,-1],"split_conditions":[1.5004E4,1.76081E5,3.62533E5,-1.5840557E-4,1.8019293E-2,-2.224103E-2,2.8630685E-2],"split_indices":[18,13,12,0,0,0,0],"split_type":[0,0,0,0,0,0,0],"sum_hessian":[2.2101396E3,2.1090725E3,1.0106713E2,2.0232124E3,8.586008E1,9.4326866E1,6.7402635E0],"tree_param":{"num_deleted":"0","num_feature":"23","num_nodes":"7","size_leaf_vector":"1"}},{"base_weights":[-2.1623066E-2,3.7747253E-2,-2.2648938E-1,1.9332077E-3,-3.4992166E-2,-1.1659489E-2,1.3346114E-2],"categories":[],"categories_nodes":[],"categories_segments":[],"categories_sizes":[],"default_left":[0,0,0,0,0,0,0],"id":87,"left_children":[1,3,5,-1,-1,-1,-1],"loss_changes":[2.7168938E1,1.919097E1,2.0786892E1,0E0,0E0,0E0,0E0],"parents":[2147483647,0,0,1,1,2,2],"right_children":[2,4,6,-1,-1,-1,-1],"split_conditions":[4.843E3,4E0,2.23526E5,1.9332077E-3,-3.4992166E-2,-1.1659489E-2,1.3346114E-2],"split_indices":[17,2,12,0,0,0,0],"split_type":[0,0,0,0,0,0,0],"sum_hessian":[2.2320376E3,1.731162E3,5.0087552E2,1.7104812E3,2.068081E1,4.4468185E2,5.6193657E1],"tree_param":{"num_deleted":"0","num_feature":"23","num_nodes":"7","size_leaf_vector":"1"}},{"base_weights":[-1.6539613E-2,8.9992136E-2,-1.007404E-1,2.8012595E-3,2.4430683E-2,-5.9093433E-3,1.0911835E-2],"categories":[],"categories_nodes":[],"categories_segments":[],"categories_sizes":[],"default_left":[0,0,0,0,0,0,0],"id":88,"left_children":[1,3,5,-1,-1,-1,-1],"loss_changes":[1.9887249E1,9.493052E0,2.396973E1,0E0,0E0,0E0,0E0],"parents":[2147483647,0,0,1,1,2,2],"right_children":[2,4,6,-1,-1,-1,-1],"split_conditions":[1E5,7.91E4,2E0,2.8012595E-3,2.4430683E-2,-5.9093433E-3,1.0911835E-2],"split_indices":[0,12,5,0,0,0,0],"split_type":[0,0,0,0,0,0,0],"sum_hessian":[2.2150596E3,9.7782996E2,1.2372297E3,9.468996E2,3.0930336E1,1.0920935E3,1.4513618E2],"tree_param":{"num_deleted":"0","num_feature":"23","num_nodes":"7","size_leaf_vector":"1"}},{"base_weights":[-7.338918E-3,1.576947E-1,-7.089015E-2,5.31125E-3,5.114084E-2,2.2360774E-4,-1.0863751E-2],"categories":[],"categories_nodes":[],"categories_segments":[],"categories_sizes":[],"default_left":[0,0,0,0,0,0,0],"id":89,"left_children":[1,3,5,-1,-1,-1,-1],"loss_changes":[2.3232458E1,1.5102703E1,2.5448433E1,0E0,0E0,0E0,0E0],"parents":[2147483647,0,0,1,1,2,2],"right_children":[2,4,6,-1,-1,-1,-1],"split_conditions":[3.96E2,1.63783E5,2.1E5,5.31125E-3,5.114084E-2,2.2360774E-4,-1.0863751E-2],"split_indices":[18,14,0,0,0,0,0],"split_type":[0,0,0,0,0,0,0],"sum_hessian":[2.2130618E3,6.148643E2,1.5981975E3,6.047077E2,1.01566E1,1.1681532E3,4.3004437E2],"tree_param":{"num_deleted":"0","num_feature":"23","num_nodes":"7","size_leaf_vector":"1"}},{"base_weights":[-9.166045E-3,-5.3128287E-2,2.6286438E-1,4.2714584E-3,-4.8331786E-3,1.1186662E-2,-2.312785E-2],"categories":[],"categories_nodes":[],"categories_segments":[],"categories_sizes":[],"default_left":[0,0,0,0,0,0,0],"id":90,"left_children":[1,3,5,-1,-1,-1,-1],"loss_changes":[2.6391216E1,2.1888872E1,6.4697056E0,0E0,0E0,0E0,0E0],"parents":[2147483647,0,0,1,1,2,2],"right_children":[2,4,6,-1,-1,-1,-1],"split_conditions":[2E0,3.96E2,1.6612E4,4.2714584E-3,-4.8331786E-3,1.1186662E-2,-2.312785E-2],"split_indices":[10,19,20,0,0,0,0],"split_type":[0,0,0,0,0,0,0],"sum_hessian":[2.2046274E3,1.8986031E3,3.060244E2,5.7562604E2,1.322977E3,2.9833304E2,7.6913495E0],"tree_param":{"num_deleted":"0","num_feature":"23","num_nodes":"7","size_leaf_vector":"1"}},{"base_weights":[1.2946001E-3,6.6214E-2,-2.1440871E-1,3.004977E-3,-3.0391747E-2,-1.1512653E-2,1.6511176E-2],"categories":[],"categories_nodes":[],"categories_segments":[],"categories_sizes":[],"default_left":[0,0,0,0,0,0,0],"id":91,"left_children":[1,3,5,-1,-1,-1,-1],"loss_changes":[3.0985691E1,1.5643541E1,2.6499985E1,0E0,0E0,0E0,0E0],"parents":[2147483647,0,0,1,1,2,2],"right_children":[2,4,6,-1,-1,-1,-1],"split_conditions":[4.52E3,4E0,2.23526E5,3.004977E-3,-3.0391747E-2,-1.1512653E-2,1.6511176E-2],"split_indices":[17,2,12,0,0,0,0],"split_type":[0,0,0,0,0,0,0],"sum_hessian":[2.2107234E3,1.6998263E3,5.108972E2,1.6792125E3,2.0613703E1,4.5393387E2,5.6963318E1],"tree_param":{"num_deleted":"0","num_feature":"23","num_nodes":"7","size_leaf_vector":"1"}},{"base_weights":[-1.3398532E-3,-5.205108E-2,2.6241505E-1,5.155788E-3,-5.159159E-3,5.089147E-3,2.0446327E-2],"categories":[],"categories_nodes":[],"categories_segments":[],"categories_sizes":[],"default_left":[0,0,0,0,0,0,0],"id":92,"left_children":[1,3,5,-1,-1,-1,-1],"loss_changes":[2.9421305E1,2.7291698E1,1.2185219E1,0E0,0E0,0E0,0E0],"parents":[2147483647,0,0,1,1,2,2],"right_children":[2,4,6,-1,-1,-1,-1],"split_conditions":[2E0,7.84E2,5.9744E4,5.155788E-3,-5.159159E-3,5.089147E-3,2.0446327E-2],"split_indices":[5,17,13,0,0,0,0],"split_type":[0,0,0,0,0,0,0],"sum_hessian":[2.1976475E3,1.843925E3,3.537223E2,5.59181E2,1.284744E3,2.3621281E2,1.1750949E2],"tree_param":{"num_deleted":"0","num_feature":"23","num_nodes":"7","size_leaf_vector":"1"}},{"base_weights":[-2.1300677E-2,1.8843659E-3,-4.1013274E-1,-4.573247E-4,3.0953554E-2,1.4183753E-2,-1.9002188E-2],"categories":[],"categories_nodes":[],"categories_segments":[],"categories_sizes":[],"default_left":[0,0,0,0,0,0,0],"id":93,"left_children":[1,3,5,-1,-1,-1,-1],"loss_changes":[1.9934927E1,2.250886E1,7.6013393E0,0E0,0E0,0E0,0E0],"parents":[2147483647,0,0,1,1,2,2],"right_children":[2,4,6,-1,-1,-1,-1],"split_conditions":[1.2139E4,2.44629E5,3.96E2,-4.573247E-4,3.0953554E-2,1.4183753E-2,-1.9002188E-2],"split_indices":[21,12,11,0,0,0,0],"split_type":[0,0,0,0,0,0,0],"sum_hessian":[2.2101992E3,2.0867659E3,1.23433266E2,2.05247E3,3.4295887E1,1.0847616E1,1.1258565E2],"tree_param":{"num_deleted":"0","num_feature":"23","num_nodes":"7","size_leaf_vector":"1"}},{"base_weights":[-3.339681E-3,1.3207515E-1,-7.0249565E-2,-3.5080122E-4,1.2844535E-2,-5.183339E-3,9.559699E-3],"categories":[],"categories_nodes":[],"categories_segments":[],"categories_sizes":[],"default_left":[0,0,0,0,0,0,0],"id":94,"left_children":[1,3,5,-1,-1,-1,-1],"loss_changes":[1.993489E1,2.0251976E1,2.912983E1,0E0,0E0,0E0,0E0],"parents":[2147483647,0,0,1,1,2,2],"right_children":[2,4,6,-1,-1,-1,-1],"split_conditions":[5.79E2,3.7E1,2E0,-3.5080122E-4,1.2844535E-2,-5.183339E-3,9.559699E-3],"split_indices":[19,4,5,0,0,0,0],"split_type":[0,0,0,0,0,0,0],"sum_hessian":[2.1981516E3,7.2661865E2,1.471533E3,4.2421497E2,3.0240366E2,1.2281143E3,2.4341864E2],"tree_param":{"num_deleted":"0","num_feature":"23","num_nodes":"7","size_leaf_vector":"1"}},{"base_weights":[-7.414633E-3,1.2485183E-2,-5.9581494E-1,-5.503025E-5,2.2115784E-2,5.015698E-2,-2.5504034E-2],"categories":[],"categories_nodes":[],"categories_segments":[],"categories_sizes":[],"default_left":[0,0,0,0,0,0,0],"id":95,"left_children":[1,3,5,-1,-1,-1,-1],"loss_changes":[2.5732803E1,1.6386318E1,8.706488E0,0E0,0E0,0E0,0E0],"parents":[2147483647,0,0,1,1,2,2],"right_children":[2,4,6,-1,-1,-1,-1],"split_conditions":[1.9648E4,2.34211E5,1.6327E4,-5.503025E-5,2.2115784E-2,5.015698E-2,-2.5504034E-2],"split_indices":[18,12,13,0,0,0,0],"split_type":[0,0,0,0,0,0,0],"sum_hessian":[2.1960479E3,2.1251536E3,7.089433E1,2.0741785E3,5.0975048E1,1.4914612E0,6.940288E1],"tree_param":{"num_deleted":"0","num_feature":"23","num_nodes":"7","size_leaf_vector":"1"}},{"base_weights":[3.1246857E-3,1.4720257E-2,-8.7021905E-1,2.394375E-3,-6.8993727E-3,-1.8874543E-2,-4.4131126E-2],"categories":[],"categories_nodes":[],"categories_segments":[],"categories_sizes":[],"default_left":[0,0,0,0,0,0,0],"id":96,"left_children":[1,3,5,-1,-1,-1,-1],"loss_changes":[2.232599E1,1.9468235E1,2.3685036E0,0E0,0E0,0E0,0E0],"parents":[2147483647,0,0,1,1,2,2],"right_children":[2,4,6,-1,-1,-1,-1],"split_conditions":[4E0,2.5E5,1.5E3,2.394375E-3,-6.8993727E-3,-1.8874543E-2,-4.4131126E-2],"split_indices":[2,0,19,0,0,0,0],"split_type":[0,0,0,0,0,0,0],"sum_hessian":[2.2023533E3,2.1744656E3,2.78877E1,1.7491185E3,4.2534702E2,1.2405275E1,1.5482424E1],"tree_param":{"num_deleted":"0","num_feature":"23","num_nodes":"7","size_leaf_vector":"1"}},{"base_weights":[-4.353475E-3,1.6585903E-2,-4.8090836E-1,-1.5614126E-4,1.4944487E-2,-2.1346178E-2,2.7989741E-2],"categories":[],"categories_nodes":[],"categories_segments":[],"categories_sizes":[],"default_left":[0,0,0,0,0,0,0],"id":97,"left_children":[1,3,5,-1,-1,-1,-1],"loss_changes":[2.1924747E1,1.5889569E1,7.755995E0,0E0,0E0,0E0,0E0],"parents":[2147483647,0,0,1,1,2,2],"right_children":[2,4,6,-1,-1,-1,-1],"split_conditions":[1.5579E4,1.48292E5,4.29309E5,-1.5614126E-4,1.4944487E-2,-2.1346178E-2,2.7989741E-2],"split_indices":[18,14,11,0,0,0,0],"split_type":[0,0,0,0,0,0,0],"sum_hessian":[2.1953416E3,2.1038647E3,9.147666E1,1.9929261E3,1.109387E2,8.718781E1,4.288849E0],"tree_param":{"num_deleted":"0","num_feature":"23","num_nodes":"7","size_leaf_vector":"1"}},{"base_weights":[1.0598582E-3,5.6191783E-2,-1.7583597E-1,-5.386939E-4,6.103311E-3,1.3179076E-2,-1.2802288E-2],"categories":[],"categories_nodes":[],"categories_segments":[],"categories_sizes":[],"default_left":[0,0,0,0,0,0,0],"id":98,"left_children":[1,3,5,-1,-1,-1,-1],"loss_changes":[2.1460075E1,1.1781626E1,4.1055878E1,0E0,0E0,0E0,0E0],"parents":[2147483647,0,0,1,1,2,2],"right_children":[2,4,6,-1,-1,-1,-1],"split_conditions":[2.3E5,3.6E1,9E0,-5.386939E-4,6.103311E-3,1.3179076E-2,-1.2802288E-2],"split_indices":[0,4,17,0,0,0,0],"split_type":[0,0,0,0,0,0,0],"sum_hessian":[2.1984316E3,1.6765844E3,5.218474E2,9.879379E2,6.886465E2,1.1912323E2,4.0272415E2],"tree_param":{"num_deleted":"0","num_feature":"23","num_nodes":"7","size_leaf_vector":"1"}},{"base_weights":[-2.3451285E-3,1.2914664E-2,-4.702737E-1,-5.577707E-5,2.5466563E-2,7.4980484E-4,-2.9414432E-2],"categories":[],"categories_nodes":[],"categories_segments":[],"categories_sizes":[],"default_left":[0,0,0,0,0,0,0],"id":99,"left_children":[1,3,5,-1,-1,-1,-1],"loss_changes":[1.5680861E1,1.9529104E1,9.654028E0,0E0,0E0,0E0,0E0],"parents":[2147483647,0,0,1,1,2,2],"right_children":[2,4,6,-1,-1,-1,-1],"split_conditions":[1.9648E4,2.55412E5,2.5356E4,-5.577707E-5,2.5466563E-2,7.4980484E-4,-2.9414432E-2],"split_indices":[18,11,14,0,0,0,0],"split_type":[0,0,0,0,0,0,0],"sum_hessian":[2.1941968E3,2.1258428E3,6.835425E1,2.0802202E3,4.5622517E1,2.5436157E1,4.2918087E1],"tree_param":{"num_deleted":"0","num_feature":"23","num_nodes":"7","size_leaf_vector":"1"}},{"base_weights":[5.5281436E-3,8.376246E-2,-9.831687E-2,-1.5779007E-2,3.8400413E-3,-5.78147E-3,1.4091787E-2],"categories":[],"categories_nodes":[],"categories_segments":[],"categories_sizes":[],"default_left":[0,0,0,0,0,0,0],"id":100,"left_children":[1,3,5,-1,-1,-1,-1],"loss_changes":[1.7872467E1,9.046584E0,2.1745487E1,0E0,0E0,0E0,0E0],"parents":[2147483647,0,0,1,1,2,2],"right_children":[2,4,6,-1,-1,-1,-1],"split_conditions":[1.5E5,-1E0,2E0,-1.5779007E-2,3.8400413E-3,-5.78147E-3,1.4091787E-2],"split_indices":[0,5,5,0,0,0,0],"split_type":[0,0,0,0,0,0,0],"sum_hessian":[2.1978794E3,1.2536233E3,9.4425604E2,3.585817E1,1.2177651E3,8.523523E2,9.1903786E1],"tree_param":{"num_deleted":"0","num_feature":"23","num_nodes":"7","size_leaf_vector":"1"}},{"base_weights":[-4.07211E-4,4.203713E-2,-2.1139932E-1,3.7825116E-4,8.491172E-3,-1.1722992E-2,1.6907169E-2],"categories":[],"categories_nodes":[],"categories_segments":[],"categories_sizes":[],"default_left":[0,0,0,0,0,0,0],"id":101,"left_children":[1,3,5,-1,-1,-1,-1],"loss_changes":[1.9674362E1,1.0389124E1,2.1293722E1,0E0,0E0,0E0,0E0],"parents":[2147483647,0,0,1,1,2,2],"right_children":[2,4,6,-1,-1,-1,-1],"split_conditions":[2.7E5,2E0,2.55412E5,3.7825116E-4,8.491172E-3,-1.1722992E-2,1.6907169E-2],"split_indices":[0,9,11,0,0,0,0],"split_type":[0,0,0,0,0,0,0],"sum_hessian":[2.1949297E3,1.8279999E3,3.669298E2,1.5447186E3,2.832812E2,3.2281876E2,4.4111057E1],"tree_param":{"num_deleted":"0","num_feature":"23","num_nodes":"7","size_leaf_vector":"1"}},{"base_weights":[-3.4725594E-3,2.1975389E-2,-4.358561E-1,5.9052487E-3,-1.5172231E-3,-1.9999076E-2,2.1971881E-2],"categories":[],"categories_nodes":[],"categories_segments":[],"categories_sizes":[],"default_left":[0,0,0,0,0,0,0],"id":102,"left_children":[1,3,5,-1,-1,-1,-1],"loss_changes":[2.3949938E1,1.6205715E1,9.5904045E0,0E0,0E0,0E0,0E0],"parents":[2147483647,0,0,1,1,2,2],"right_children":[2,4,6,-1,-1,-1,-1],"split_conditions":[1.2139E4,3.5E2,3.72188E5,5.9052487E-3,-1.5172231E-3,-1.9999076E-2,2.1971881E-2],"split_indices":[21,20,11,0,0,0,0],"split_type":[0,0,0,0,0,0,0],"sum_hessian":[2.1747488E3,2.0547646E3,1.1998407E2,6.567922E2,1.3979725E3,1.1185789E2,8.126181E0],"tree_param":{"num_deleted":"0","num_feature":"23","num_nodes":"7","size_leaf_vector":"1"}},{"base_weights":[-9.640485E-3,1.8097714E-3,-8.2739955E-1,3.996499E-3,-3.0879457E-3,-3.752026E-2,-1.6393073E-2],"categories":[],"categories_nodes":[],"categories_segments":[],"categories_sizes":[],"default_left":[0,0,0,0,0,0,0],"id":103,"left_children":[1,3,5,-1,-1,-1,-1],"loss_changes":[2.0564106E1,1.767237E1,1.2579403E0,0E0,0E0,0E0,0E0],"parents":[2147483647,0,0,1,1,2,2],"right_children":[2,4,6,-1,-1,-1,-1],"split_conditions":[4E0,9.7E2,4.1E1,3.996499E-3,-3.0879457E-3,-3.752026E-2,-1.6393073E-2],"split_indices":[2,22,4,0,0,0,0],"split_type":[0,0,0,0,0,0,0],"sum_hessian":[2.1950266E3,2.1657002E3,2.9326332E1,9.654369E2,1.2002633E3,2.101206E1,8.314273E0],"tree_param":{"num_deleted":"0","num_feature":"23","num_nodes":"7","size_leaf_vector":"1"}},{"base_weights":[-6.893351E-3,1.2095115E-1,-6.8310626E-2,1.0260891E-2,-2.3316278E-3,-2.7167756E-4,-1.0389166E-2],"categories":[],"categories_nodes":[],"categories_segments":[],"categories_sizes":[],"default_left":[0,0,0,0,0,0,0],"id":104,"left_children":[1,3,5,-1,-1,-1,-1],"loss_changes":[1.7296177E1,1.838134E1,1.8077724E1,0E0,0E0,0E0,0E0],"parents":[2147483647,0,0,1,1,2,2],"right_children":[2,4,6,-1,-1,-1,-1],"split_conditions":[3.92E2,6.352E3,2.3E5,1.0260891E-2,-2.3316278E-3,-2.7167756E-4,-1.0389166E-2],"split_indices":[20,11,0,0,0,0,0],"split_type":[0,0,0,0,0,0,0],"sum_hessian":[2.20076E3,7.1385333E2,1.4869067E3,3.9932776E2,3.145256E2,1.136095E3,3.5081177E2],"tree_param":{"num_deleted":"0","num_feature":"23","num_nodes":"7","size_leaf_vector":"1"}},{"base_weights":[-2.5317166E-2,1.9470712E-2,-1.8879744E-1,1.1437988E-3,-3.1354956E-2,-1.0752287E-2,1.5772527E-2],"categories":[],"categories_nodes":[],"categories_segments":[],"categories_sizes":[],"default_left":[0,0,0,0,0,0,0],"id":105,"left_children":[1,3,5,-1,-1,-1,-1],"loss_changes":[1.6197796E1,1.4122956E1,2.46361E1,0E0,0E0,0E0,0E0],"parents":[2147483647,0,0,1,1,2,2],"right_children":[2,4,6,-1,-1,-1,-1],"split_conditions":[5E3,4E0,2.23526E5,1.1437988E-3,-3.1354956E-2,-1.0752287E-2,1.5772527E-2],"split_indices":[17,2,12,0,0,0,0],"split_type":[0,0,0,0,0,0,0],"sum_hessian":[2.210727E3,1.7360037E3,4.747234E2,1.7164208E3,1.9582924E1,4.1453287E2,6.0190525E1],"tree_param":{"num_deleted":"0","num_feature":"23","num_nodes":"7","size_leaf_vector":"1"}},{"base_weights":[5.1050587E-3,1.6459325E-1,-4.9153898E-2,1.0026326E-2,-2.068424E-3,1.4885633E-3,-7.890199E-3],"categories":[],"categories_nodes":[],"categories_segments":[],"categories_sizes":[],"default_left":[0,0,0,0,0,0,0],"id":106,"left_children":[1,3,5,-1,-1,-1,-1],"loss_changes":[1.8922575E1,1.1186592E1,2.1829723E1,0E0,0E0,0E0,0E0],"parents":[2147483647,0,0,1,1,2,2],"right_children":[2,4,6,-1,-1,-1,-1],"split_conditions":[6E0,1.6731E4,1.7E5,1.0026326E-2,-2.068424E-3,1.4885633E-3,-7.890199E-3],"split_indices":[19,11,0,0,0,0,0],"split_type":[0,0,0,0,0,0,0],"sum_hessian":[2.18472E3,5.540672E2,1.6306527E3,3.8869266E2,1.6537459E2,1.0390171E3,5.9163556E2],"tree_param":{"num_deleted":"0","num_feature":"23","num_nodes":"7","size_leaf_vector":"1"}},{"base_weights":[-1.271113E-2,3.715768E-2,-1.7367905E-1,5.3746006E-3,-1.5083717E-3,-9.641228E-3,1.4591734E-2],"categories":[],"categories_nodes":[],"categories_segments":[],"categories_sizes":[],"default_left":[0,0,0,0,0,0,0],"id":107,"left_children":[1,3,5,-1,-1,-1,-1],"loss_changes":[1.7550783E1,1.2748106E1,2.0923862E1,0E0,0E0,0E0,0E0],"parents":[2147483647,0,0,1,1,2,2],"right_children":[2,4,6,-1,-1,-1,-1],"split_conditions":[2.3E5,2E0,2.23526E5,5.3746006E-3,-1.5083717E-3,-9.641228E-3,1.4591734E-2],"split_indices":[0,3,12,0,0,0,0],"split_type":[0,0,0,0,0,0,0],"sum_hessian":[2.1845886E3,1.6684592E3,5.1612933E2,7.165635E2,9.518958E2,4.5553406E2,6.0595287E1],"tree_param":{"num_deleted":"0","num_feature":"23","num_nodes":"7","size_leaf_vector":"1"}},{"base_weights":[-1.0541518E-2,5.9054602E-2,-1.2167553E-1,1.5504289E-3,2.2039486E-2,-6.5079527E-3,9.570739E-3],"categories":[],"categories_nodes":[],"categories_segments":[],"categories_sizes":[],"default_left":[0,0,0,0,0,0,0],"id":108,"left_children":[1,3,5,-1,-1,-1,-1],"loss_changes":[1.6874243E1,1.30814705E1,1.3978335E1,0E0,0E0,0E0,0E0],"parents":[2147483647,0,0,1,1,2,2],"right_children":[2,4,6,-1,-1,-1,-1],"split_conditions":[1.976E3,7.6705E4,1.68601E5,1.5504289E-3,2.2039486E-2,-6.5079527E-3,9.570739E-3],"split_indices":[22,14,14,0,0,0,0],"split_type":[0,0,0,0,0,0,0],"sum_hessian":[2.1797573E3,1.3406578E3,8.390996E2,1.2924454E3,4.821242E1,7.476E2,9.149964E1],"tree_param":{"num_deleted":"0","num_feature":"23","num_nodes":"7","size_leaf_vector":"1"}},{"base_weights":[1.6822604E-3,-3.2529946E-2,2.0807996E-1,3.1202661E-3,-3.6845268E-3,9.903267E-3,-8.120414E-3],"categories":[],"categories_nodes":[],"categories_segments":[],"categories_sizes":[],"default_left":[0,0,0,0,0,0,0],"id":109,"left_children":[1,3,5,-1,-1,-1,-1],"loss_changes":[1.5371153E1,1.3024924E1,5.9606934E0,0E0,0E0,0E0,0E0],"parents":[2147483647,0,0,1,1,2,2],"right_children":[2,4,6,-1,-1,-1,-1],"split_conditions":[2E0,6.94E2,3E0,3.1202661E-3,-3.6845268E-3,9.903267E-3,-8.120414E-3],"split_indices":[10,19,8,0,0,0,0],"split_type":[0,0,0,0,0,0,0],"sum_hessian":[2.174851E3,1.8663328E3,3.085184E2,6.624878E2,1.203845E3,2.7826132E2,3.0257105E1],"tree_param":{"num_deleted":"0","num_feature":"23","num_nodes":"7","size_leaf_vector":"1"}},{"base_weights":[2.0969089E-3,1.0722612E-1,-8.5918866E-2,9.842845E-3,6.6248694E-4,1.9342757E-3,-6.385954E-3],"categories":[],"categories_nodes":[],"categories_segments":[],"categories_sizes":[],"default_left":[0,0,0,0,0,0,0],"id":110,"left_children":[1,3,5,-1,-1,-1,-1],"loss_changes":[2.0176735E1,1.3011377E1,1.2525473E1,0E0,0E0,0E0,0E0],"parents":[2147483647,0,0,1,1,2,2],"right_children":[2,4,6,-1,-1,-1,-1],"split_conditions":[2E0,2E0,9.64E3,9.842845E-3,6.6248694E-4,1.9342757E-3,-6.385954E-3],"split_indices":[3,1,11,0,0,0,0],"split_type":[0,0,0,0,0,0,0],"sum_hessian":[2.178559E3,9.9266547E2,1.1858937E3,3.79854E2,6.1281146E2,4.3273184E2,7.531618E2],"tree_param":{"num_deleted":"0","num_feature":"23","num_nodes":"7","size_leaf_vector":"1"}},{"base_weights":[-5.25801E-4,9.42181E-2,-8.01517E-2,9.031752E-3,3.5549514E-4,8.297635E-5,-9.7222915E-3],"categories":[],"categories_nodes":[],"categories_segments":[],"categories_sizes":[],"default_left":[0,0,0,0,0,0,0],"id":111,"left_children":[1,3,5,-1,-1,-1,-1],"loss_changes":[1.6560587E1,1.1716478E1,1.6599459E1,0E0,0E0,0E0,0E0],"parents":[2147483647,0,0,1,1,2,2],"right_children":[2,4,6,-1,-1,-1,-1],"split_conditions":[2E0,2E0,2.004E3,9.031752E-3,3.5549514E-4,8.297635E-5,-9.7222915E-3],"split_indices":[3,1,20,0,0,0,0],"split_type":[0,0,0,0,0,0,0],"sum_hessian":[2.193179E3,1.0014306E3,1.1917483E3,3.824283E2,6.1900226E2,8.0239844E2,3.8934982E2],"tree_param":{"num_deleted":"0","num_feature":"23","num_nodes":"7","size_leaf_vector":"1"}},{"base_weights":[1.2583181E-2,-2.7429344E-2,2.0972583E-1,-2.3791785E-3,9.492678E-3,1.5867198E-2,3.8358413E-3],"categories":[],"categories_nodes":[],"categories_segments":[],"categories_sizes":[],"default_left":[0,0,0,0,0,0,0],"id":112,"left_children":[1,3,5,-1,-1,-1,-1],"loss_changes":[1.7328028E1,1.662236E1,8.09656E0,0E0,0E0,0E0,0E0],"parents":[2147483647,0,0,1,1,2,2],"right_children":[2,4,6,-1,-1,-1,-1],"split_conditions":[1E0,2E0,1E0,-2.3791785E-3,9.492678E-3,1.5867198E-2,3.8358413E-3],"split_indices":[8,5,6,0,0,0,0],"split_type":[0,0,0,0,0,0,0],"sum_hessian":[2.19498E3,1.8253612E3,3.6961865E2,1.6247181E3,2.0064317E2,1.3247902E2,2.3713963E2],"tree_param":{"num_deleted":"0","num_feature":"23","num_nodes":"7","size_leaf_vector":"1"}},{"base_weights":[-4.2085066E-3,-4.2184945E-2,2.2728895E-1,2.5290898E-3,-4.322716E-3,9.927624E-3,-2.0884627E-2],"categories":[],"categories_nodes":[],"categories_segments":[],"categories_sizes":[],"default_left":[0,0,0,0,0,0,0],"id":113,"left_children":[1,3,5,-1,-1,-1,-1],"loss_changes":[1.9112198E1,1.3729988E1,6.508255E0,0E0,0E0,0E0,0E0],"parents":[2147483647,0,0,1,1,2,2],"right_children":[2,4,6,-1,-1,-1,-1],"split_conditions":[2E0,8.586E3,1.1764E4,2.5290898E-3,-4.322716E-3,9.927624E-3,-2.0884627E-2],"split_indices":[10,11,18,0,0,0,0],"split_type":[0,0,0,0,0,0,0],"sum_hessian":[2.1718628E3,1.8664888E3,3.0537393E2,7.293958E2,1.137093E3,2.9547852E2,9.895401E0],"tree_param":{"num_deleted":"0","num_feature":"23","num_nodes":"7","size_leaf_vector":"1"}},{"base_weights":[-2.9136377E-4,9.951897E-2,-8.577065E-2,1.4868558E-2,1.9221737E-3,1.5376599E-3,-6.225491E-3],"categories":[],"categories_nodes":[],"categories_segments":[],"categories_sizes":[],"default_left":[0,0,0,0,0,0,0],"id":114,"left_children":[1,3,5,-1,-1,-1,-1],"loss_changes":[1.8587193E1,1.4204478E1,1.0857839E1,0E0,0E0,0E0,0E0],"parents":[2147483647,0,0,1,1,2,2],"right_children":[2,4,6,-1,-1,-1,-1],"split_conditions":[2E0,4E4,9.64E3,1.4868558E-2,1.9221737E-3,1.5376599E-3,-6.225491E-3],"split_indices":[3,0,11,0,0,0,0],"split_type":[0,0,0,0,0,0,0],"sum_hessian":[2.176599E3,1.0040503E3,1.1725487E3,1.5093724E2,8.5311304E2,4.352349E2,7.3731384E2],"tree_param":{"num_deleted":"0","num_feature":"23","num_nodes":"7","size_leaf_vector":"1"}},{"base_weights":[-2.8683408E-3,-3.9687566E-2,1.9451392E-1,7.148623E-3,-3.3621201E-3,-3.7363432E-2,9.289222E-3],"categories":[],"categories_nodes":[],"categories_segments":[],"categories_sizes":[],"default_left":[0,0,0,0,0,0,0],"id":115,"left_children":[1,3,5,-1,-1,-1,-1],"loss_changes":[1.5904418E1,1.914782E1,1.754544E1,0E0,0E0,0E0,0E0],"parents":[2147483647,0,0,1,1,2,2],"right_children":[2,4,6,-1,-1,-1,-1],"split_conditions":[2E0,5E4,5.81E2,7.148623E-3,-3.3621201E-3,-3.7363432E-2,9.289222E-3],"split_indices":[5,0,11,0,0,0,0],"split_type":[0,0,0,0,0,0,0],"sum_hessian":[2.1863796E3,1.8433284E3,3.430512E2,3.1767743E2,1.5256509E3,1.1759621E1,3.312916E2],"tree_param":{"num_deleted":"0","num_feature":"23","num_nodes":"7","size_leaf_vector":"1"}},{"base_weights":[-1.1729654E-2,1.325116E-2,-3.1518295E-1,8.183811E-5,3.31197E-2,-1.4605473E-2,1.676108E-2],"categories":[],"categories_nodes":[],"categories_segments":[],"categories_sizes":[],"default_left":[0,0,0,0,0,0,0],"id":116,"left_children":[1,3,5,-1,-1,-1,-1],"loss_changes":[1.6418966E1,1.8660398E1,7.4405155E0,0E0,0E0,0E0,0E0],"parents":[2147483647,0,0,1,1,2,2],"right_children":[2,4,6,-1,-1,-1,-1],"split_conditions":[1E4,2.55412E5,3.72188E5,8.183811E-5,3.31197E-2,-1.4605473E-2,1.676108E-2],"split_indices":[22,11,11,0,0,0,0],"split_type":[0,0,0,0,0,0,0],"sum_hessian":[2.1643938E3,2.0006528E3,1.6374097E2,1.9753027E3,2.5350113E1,1.521254E2,1.161557E1],"tree_param":{"num_deleted":"0","num_feature":"23","num_nodes":"7","size_leaf_vector":"1"}},{"base_weights":[-1.0729254E-2,5.3937446E-2,-9.943183E-2,6.4896154E-3,-1.0466133E-3,-4.5816163E-3,3.9319236E-2],"categories":[],"categories_nodes":[],"categories_segments":[],"categories_sizes":[],"default_left":[0,0,0,0,0,0,0],"id":117,"left_children":[1,3,5,-1,-1,-1,-1],"loss_changes":[1.2561498E1,1.1510844E1,1.8573084E1,0E0,0E0,0E0,0E0],"parents":[2147483647,0,0,1,1,2,2],"right_children":[2,4,6,-1,-1,-1,-1],"split_conditions":[1.5E5,2E0,5.9E1,6.4896154E-3,-1.0466133E-3,-4.5816163E-3,3.9319236E-2],"split_indices":[0,3,4,0,0,0,0],"split_type":[0,0,0,0,0,0,0],"sum_hessian":[2.1879663E3,1.2656577E3,9.2230853E2,5.286069E2,7.3705084E2,9.084026E2,1.3905927E1],"tree_param":{"num_deleted":"0","num_feature":"23","num_nodes":"7","size_leaf_vector":"1"}},{"base_weights":[1.4811188E-2,3.6134746E-2,-3.6236322E-1,9.319708E-4,2.4239833E-2,-1.6510222E-2,3.0093212E-2],"categories":[],"categories_nodes":[],"categories_segments":[],"categories_sizes":[],"default_left":[0,0,0,0,0,0,0],"id":118,"left_children":[1,3,5,-1,-1,-1,-1],"loss_changes":[1.749066E1,1.4726997E1,8.373319E0,0E0,0E0,0E0,0E0],"parents":[2147483647,0,0,1,1,2,2],"right_children":[2,4,6,-1,-1,-1,-1],"split_conditions":[1.2139E4,1.93799E5,3.83332E5,9.319708E-4,2.4239833E-2,-1.6510222E-2,3.0093212E-2],"split_indices":[21,16,14,0,0,0,0],"split_type":[0,0,0,0,0,0,0],"sum_hessian":[2.1720967E3,2.056724E3,1.1537271E2,2.0156272E3,4.109685E1,1.1008023E2,5.292478E0],"tree_param":{"num_deleted":"0","num_feature":"23","num_nodes":"7","size_leaf_vector":"1"}},{"base_weights":[-2.0557041E-3,5.797043E-2,-1.1896749E-1,6.6548632E-3,-1.416099E-4,-9.780471E-3,2.8006006E-3],"categories":[],"categories_nodes":[],"categories_segments":[],"categories_sizes":[],"default_left":[0,0,0,0,0,0,0],"id":119,"left_children":[1,3,5,-1,-1,-1,-1],"loss_changes":[1.5403603E1,1.0066595E1,1.874329E1,0E0,0E0,0E0,0E0],"parents":[2147483647,0,0,1,1,2,2],"right_children":[2,4,6,-1,-1,-1,-1],"split_conditions":[2.004E3,3.96E2,7.8041E4,6.6548632E-3,-1.416099E-4,-9.780471E-3,2.8006006E-3],"split_indices":[20,18,12,0,0,0,0],"split_type":[0,0,0,0,0,0,0],"sum_hessian":[2.1929622E3,1.4493335E3,7.436286E2,5.1169315E2,9.376404E2,4.3958926E2,3.0403934E2],"tree_param":{"num_deleted":"0","num_feature":"23","num_nodes":"7","size_leaf_vector":"1"}},{"base_weights":[-1.1869303E-2,9.039337E-3,-3.7351596E-1,-1.1165687E-3,7.856215E-3,-1.7714038E-2,1.0997331E-2],"categories":[],"categories_nodes":[],"categories_segments":[],"categories_sizes":[],"default_left":[0,0,0,0,0,0,0],"id":120,"left_children":[1,3,5,-1,-1,-1,-1],"loss_changes":[1.6433687E1,1.490039E1,6.4107723E0,0E0,0E0,0E0,0E0],"parents":[2147483647,0,0,1,1,2,2],"right_children":[2,4,6,-1,-1,-1,-1],"split_conditions":[1.2446E4,7.8041E4,3.34394E5,-1.1165687E-3,7.856215E-3,-1.7714038E-2,1.0997331E-2],"split_indices":[18,12,11,0,0,0,0],"split_type":[0,0,0,0,0,0,0],"sum_hessian":[2.1718792E3,2.0540962E3,1.1778278E2,1.7184934E3,3.356028E2,1.0514661E2,1.2636183E1],"tree_param":{"num_deleted":"0","num_feature":"23","num_nodes":"7","size_leaf_vector":"1"}},{"base_weights":[-1.3371409E-2,-4.924205E-3,-6.93425E-1,1.0605084E-3,-6.4514615E-3,-2.9961878E-2,3.4446002E-3],"categories":[],"categories_nodes":[],"categories_segments":[],"categories_sizes":[],"default_left":[0,0,0,0,0,0,0],"id":121,"left_children":[1,3,5,-1,-1,-1,-1],"loss_changes":[1.2478964E1,1.1072884E1,1.6269245E0,0E0,0E0,0E0,0E0],"parents":[2147483647,0,0,1,1,2,2],"right_children":[2,4,6,-1,-1,-1,-1],"split_conditions":[4E0,2.7E5,1.7276E4,1.0605084E-3,-6.4514615E-3,-2.9961878E-2,3.4446002E-3],"split_indices":[2,0,18,0,0,0,0],"split_type":[0,0,0,0,0,0,0],"sum_hessian":[2.1719075E3,2.1462554E3,2.565221E1,1.7890789E3,3.571764E2,2.3427053E1,2.2251554E0],"tree_param":{"num_deleted":"0","num_feature":"23","num_nodes":"7","size_leaf_vector":"1"}},{"base_weights":[2.2074686E-2,-5.56891E-2,1.21106446E-1,-4.0531982E-4,-1.0877662E-2,1.4119703E-2,2.400671E-3],"categories":[],"categories_nodes":[],"categories_segments":[],"categories_sizes":[],"default_left":[0,0,0,0,0,0,0],"id":122,"left_children":[1,3,5,-1,-1,-1,-1],"loss_changes":[1.6659866E1,1.2251685E1,1.3629362E1,0E0,0E0,0E0,0E0],"parents":[2147483647,0,0,1,1,2,2],"right_children":[2,4,6,-1,-1,-1,-1],"split_conditions":[3.6E1,5.009E3,8.82E2,-4.0531982E-4,-1.0877662E-2,1.4119703E-2,2.400671E-3],"split_indices":[4,18,11,0,0,0,0],"split_type":[0,0,0,0,0,0,0],"sum_hessian":[2.1614387E3,1.2109718E3,9.504669E2,1.0075658E3,2.0340598E2,1.8735706E2,7.6310986E2],"tree_param":{"num_deleted":"0","num_feature":"23","num_nodes":"7","size_leaf_vector":"1"}},{"base_weights":[-1.851494E-2,1.6443104E-2,-1.8429188E-1,8.9787376E-5,1.8667469E-2,-1.0586859E-2,1.1326348E-2],"categories":[],"categories_nodes":[],"categories_segments":[],"categories_sizes":[],"default_left":[0,0,0,0,0,0,0],"id":123,"left_children":[1,3,5,-1,-1,-1,-1],"loss_changes":[1.255486E1,1.16959095E1,1.5689839E1,0E0,0E0,0E0,0E0],"parents":[2147483647,0,0,1,1,2,2],"right_children":[2,4,6,-1,-1,-1,-1],"split_conditions":[5.52E3,1.24233E5,1.92649E5,8.9787376E-5,1.8667469E-2,-1.0586859E-2,1.1326348E-2],"split_indices":[17,12,14,0,0,0,0],"split_type":[0,0,0,0,0,0,0],"sum_hessian":[2.164887E3,1.7886154E3,3.7627164E2,1.7364939E3,5.212136E1,3.18261E2,5.8010647E1],"tree_param":{"num_deleted":"0","num_feature":"23","num_nodes":"7","size_leaf_vector":"1"}},{"base_weights":[8.974968E-3,5.1949874E-2,-1.4687826E-1,6.091673E-3,-6.917504E-4,-8.939722E-3,9.252224E-3],"categories":[],"categories_nodes":[],"categories_segments":[],"categories_sizes":[],"default_left":[0,0,0,0,0,0,0],"id":124,"left_children":[1,3,5,-1,-1,-1,-1],"loss_changes":[1.457812E1,1.2396005E1,1.493503E1,0E0,0E0,0E0,0E0],"parents":[2147483647,0,0,1,1,2,2],"right_children":[2,4,6,-1,-1,-1,-1],"split_conditions":[4.843E3,8.326E3,1.95375E5,6.091673E-3,-6.917504E-4,-8.939722E-3,9.252224E-3],"split_indices":[17,11,11,0,0,0,0],"split_type":[0,0,0,0,0,0,0],"sum_hessian":[2.1744214E3,1.7049624E3,4.6945895E2,6.826001E2,1.02236237E3,3.8691626E2,8.2542694E1],"tree_param":{"num_deleted":"0","num_feature":"23","num_nodes":"7","size_leaf_vector":"1"}},{"base_weights":[-1.4357935E-2,1.6545346E-1,-5.5280868E-2,2.5107083E-3,1.1988831E-2,-3.8268757E-3,7.817912E-3],"categories":[],"categories_nodes":[],"categories_segments":[],"categories_sizes":[],"default_left":[0,0,0,0,0,0,0],"id":125,"left_children":[1,3,5,-1,-1,-1,-1],"loss_changes":[1.5922903E1,5.7365866E0,1.933096E1,0E0,0E0,0E0,0E0],"parents":[2147483647,0,0,1,1,2,2],"right_children":[2,4,6,-1,-1,-1,-1],"split_conditions":[5E4,3.5E1,2E0,2.5107083E-3,1.1988831E-2,-3.8268757E-3,7.817912E-3],"split_indices":[0,4,5,0,0,0,0],"split_type":[0,0,0,0,0,0,0],"sum_hessian":[2.1616624E3,4.0019617E2,1.7614662E3,2.3460251E2,1.6559367E2,1.5092395E3,2.5222664E2],"tree_param":{"num_deleted":"0","num_feature":"23","num_nodes":"7","size_leaf_vector":"1"}},{"base_weights":[-9.1308635E-3,-4.3240923E-2,1.942441E-1,3.2898139E-3,-4.307372E-3,1.3748477E-2,1.7611702E-3],"categories":[],"categories_nodes":[],"categories_segments":[],"categories_sizes":[],"default_left":[0,0,0,0,0,0,0],"id":126,"left_children":[1,3,5,-1,-1,-1,-1],"loss_changes":[1.5072803E1,1.596284E1,7.3484716E0,0E0,0E0,0E0,0E0],"parents":[2147483647,0,0,1,1,2,2],"right_children":[2,4,6,-1,-1,-1,-1],"split_conditions":[2E0,6E2,1.63E3,3.2898139E-3,-4.307372E-3,1.3748477E-2,1.7611702E-3],"split_indices":[10,19,18,0,0,0,0],"split_type":[0,0,0,0,0,0,0],"sum_hessian":[2.1705605E3,1.8594764E3,3.110841E2,6.4141833E2,1.2180581E3,1.5022704E2,1.6085707E2],"tree_param":{"num_deleted":"0","num_feature":"23","num_nodes":"7","size_leaf_vector":"1"}},{"base_weights":[-9.359838E-4,-3.3933647E-2,2.0068918E-1,-2.511414E-3,7.853441E-3,1.0061823E-2,-1.079057E-2],